{"type":"LSTM","options":{"inputSize":52,"inputRange":52,"hiddenLayers":[20,20],"outputSize":52,"decayRate":0.999,"smoothEps":1e-8,"regc":0.000001,"clipval":5,"maxPredictionLength":100,"dataFormatter":{"values":["Grocery","Groceries","Yogurt from safeer","Westzone shopping","Water + Roti","Westzone Grocery shopping","Grocery from Safeer","Credit card payment","Other","Chicken","Grocery from westzone","Shopping from westzone","Home support ","Family Support","Cleaner tip","Services","Water","Carrefour shopping","Carrefour shopping for grocery","Shopping from carrefourr ","Dinning Out","Rotie","Rench tool for In","Chicken karie with 1 and half rotie","Rotie with chicken karie","4 roties","Lunch with chicken karie","Chicken karie with rotie for lunch","House item shopping from safeer market","Chicken tikka wrap","Lunch with bbq club and majboose rice","Dinner with dal and 2 roties","Dinner with chicken tikka wrap","Lunch with chicken charcol ","Food items shopping at carrefourr ","Dinner with dal and roti","chicken karie in lunch","Shopping for tea filter and  tea pot","Desertcart monthly membership account","Pizza for dinner","Magnetic type c adapter from desertcart","Electronics","House items shopping from safeer market","Lunch with chicken charcol","Chicken charcol","Room rent","Rent","Home items grocery shopping","Breakfast with dal and rotie","Chicken karie with 2 rotie","Breakfast with pori and channa","Tikka with roti","Roti with Dal","Dal with white rice dinner","Splitwise money to Nizam","General","Tikka kabab for Lunch","Dal and roti for dinner","Tikka for lunch","Debonair pizza for lumch","Biscuits and Grapes","Dinner","Lunch","Breakfast","House hold item shopping","lunch","Sent money to home","Galaxy Buds"],"indexTable":{"1":35,"2":41,"4":36,"G":0,"r":1,"o":2,"c":3,"e":4,"y":5,"i":6,"s":7,"Y":8,"g":9,"u":10,"t":11," ":12,"f":13,"m":14,"a":15,"W":16,"z":17,"n":18,"h":19,"p":20,"+":21,"R":22,"S":23,"C":24,"d":25,"O":26,"k":27,"w":28,"H":29,"F":30,"l":31,"v":32,"D":33,"I":34,"L":37,"b":38,"q":39,"j":40,"P":42,"M":43,"E":44,"B":45,"T":46,"N":47,"x":48,"stop-input":49,"start-output":50,"unrecognized":51},"characterTable":{"0":"G","1":"r","2":"o","3":"c","4":"e","5":"y","6":"i","7":"s","8":"Y","9":"g","10":"u","11":"t","12":" ","13":"f","14":"m","15":"a","16":"W","17":"z","18":"n","19":"h","20":"p","21":"+","22":"R","23":"S","24":"C","25":"d","26":"O","27":"k","28":"w","29":"H","30":"F","31":"l","32":"v","33":"D","34":"I","35":"1","36":"4","37":"L","38":"b","39":"q","40":"j","41":"2","42":"P","43":"M","44":"E","45":"B","46":"T","47":"N","48":"x","49":null,"50":null,"51":null},"characters":["G","r","o","c","e","y","i","s","Y","g","u","t"," ","f","m","a","W","z","n","h","p","+","R","S","C","d","O","k","w","H","F","l","v","D","I","1","4","L","b","q","j","2","P","M","E","B","T","N","x","stop-input","start-output","unrecognized"],"specialIndexes":[49,50,51]}},"input":{"rows":53,"columns":52,"weights":{"0":1.0337752103805542,"1":0.23586499691009521,"2":-0.38926392793655396,"3":-0.7875472903251648,"4":1.3006095886230469,"5":0.2714325785636902,"6":-1.5207842588424683,"7":0.13848543167114258,"8":-0.17692850530147552,"9":0.7313480377197266,"10":-0.44499754905700684,"11":-0.16440412402153015,"12":1.0370383262634277,"13":-0.7862239480018616,"14":-0.574857234954834,"15":0.45070576667785645,"16":-0.9669575691223145,"17":0.4942082166671753,"18":0.734233021736145,"19":0.32272177934646606,"20":0.1712355762720108,"21":-0.07824374735355377,"22":-2.302804946899414,"23":-2.222249746322632,"24":-0.17144522070884705,"25":0.6770216822624207,"26":1.2582148313522339,"27":-0.8063185811042786,"28":0.2657536268234253,"29":0.18286649882793427,"30":-0.7776161432266235,"31":-0.4337179660797119,"32":0.06382831931114197,"33":-0.48092594742774963,"34":-1.2701691389083862,"35":1.2367409467697144,"36":0.6752852201461792,"37":-0.18270669877529144,"38":0.7860739231109619,"39":1.3394876718521118,"40":-0.13914695382118225,"41":-0.322418749332428,"42":0.5291914939880371,"43":-0.14399826526641846,"44":-1.2414361238479614,"45":0.14452961087226868,"46":1.2921737432479858,"47":-0.24152497947216034,"48":-1.192825436592102,"49":0.4493313729763031,"50":1.0527801513671875,"51":0.16862399876117706,"52":0.11955312639474869,"53":1.2459979057312012,"54":-0.6062286496162415,"55":0.8830746412277222,"56":2.74000883102417,"57":0.12458241730928421,"58":-2.284442186355591,"59":-2.2908523082733154,"60":-0.6601665616035461,"61":1.1379404067993164,"62":1.0536764860153198,"63":-0.5761436223983765,"64":1.826126217842102,"65":-1.2786123752593994,"66":-0.8345800042152405,"67":0.5986067652702332,"68":-2.058065414428711,"69":0.8079227209091187,"70":1.1397086381912231,"71":1.0447921752929688,"72":-0.6257926225662231,"73":1.6107449531555176,"74":-3.4033682346343994,"75":-1.5484429597854614,"76":-2.1323416233062744,"77":-2.7607569694519043,"78":1.4444127082824707,"79":-1.0640571117401123,"80":0.23034323751926422,"81":-0.7178749442100525,"82":-2.961514472961426,"83":3.32297945022583,"84":-1.475899577140808,"85":3.0900542736053467,"86":-2.952012062072754,"87":3.106687068939209,"88":1.173850178718567,"89":-0.515611469745636,"90":1.3392833471298218,"91":0.9859905242919922,"92":0.14412911236286163,"93":-0.7750213146209717,"94":0.7667657136917114,"95":-1.6149338483810425,"96":-3.115438461303711,"97":1.283352017402649,"98":1.4750999212265015,"99":0.3075040578842163,"100":-3.226964235305786,"101":0.9682931303977966,"102":3.013848066329956,"103":1.1587436199188232,"104":1.6484384536743164,"105":-0.5093713402748108,"106":1.982421636581421,"107":0.2653527855873108,"108":1.0676084756851196,"109":0.47988995909690857,"110":-0.46415549516677856,"111":1.3570833206176758,"112":1.5170711278915405,"113":-1.0449084043502808,"114":1.7074685096740723,"115":-0.3433697819709778,"116":1.097578525543213,"117":0.5799594521522522,"118":-0.6618762016296387,"119":-0.45930853486061096,"120":-0.32180944085121155,"121":1.8779304027557373,"122":0.7212960124015808,"123":2.009859800338745,"124":0.1407138854265213,"125":-0.8146710991859436,"126":-0.48874571919441223,"127":-0.9105320572853088,"128":-0.2608075737953186,"129":0.022690651938319206,"130":-0.2471211701631546,"131":-0.968643069267273,"132":-0.8969776034355164,"133":-1.1839783191680908,"134":-0.8431429862976074,"135":-0.7967284917831421,"136":1.0165828466415405,"137":-1.1032003164291382,"138":0.0009837094694375992,"139":0.22467626631259918,"140":0.7233895659446716,"141":-0.08662137389183044,"142":0.5878415107727051,"143":0.39741653203964233,"144":0.7023305296897888,"145":-0.8964734077453613,"146":0.8756133913993835,"147":-2.3032634258270264,"148":-0.4956051707267761,"149":-0.5942881107330322,"150":0.6408354043960571,"151":-1.2056968212127686,"152":-0.7025535106658936,"153":1.271091103553772,"154":0.7842391133308411,"155":-1.0171371698379517,"156":-0.3753908574581146,"157":0.5553817749023438,"158":-1.2843272686004639,"159":1.0180336236953735,"160":1.187658667564392,"161":-0.04615569859743118,"162":-0.5844038724899292,"163":-0.4453250467777252,"164":-1.256537914276123,"165":-0.3808369040489197,"166":-1.611435055732727,"167":0.19339889287948608,"168":-0.3171229660511017,"169":-0.9999019503593445,"170":0.7238134145736694,"171":-0.15322069823741913,"172":-1.3813493251800537,"173":-0.13209424912929535,"174":0.06486460566520691,"175":0.48658496141433716,"176":-1.0716315507888794,"177":0.8774009346961975,"178":-1.2628271579742432,"179":0.06405693292617798,"180":-1.1066224575042725,"181":-1.389492392539978,"182":-0.02052178420126438,"183":-1.0037450790405273,"184":1.4707496166229248,"185":-0.19128212332725525,"186":0.5506515502929688,"187":1.0078679323196411,"188":-0.4590514302253723,"189":1.2972630262374878,"190":-0.4819299578666687,"191":0.8188626170158386,"192":0.5462731719017029,"193":-2.328404664993286,"194":0.9263644814491272,"195":-1.1203398704528809,"196":1.742908239364624,"197":-1.9918490648269653,"198":2.115431785583496,"199":0.21192394196987152,"200":-0.4850837290287018,"201":1.608055591583252,"202":0.8300668597221375,"203":1.7235119342803955,"204":-0.9502319097518921,"205":0.3320186138153076,"206":0.5180414319038391,"207":1.3027218580245972,"208":-0.2798582911491394,"209":-0.4271702766418457,"210":0.7063864469528198,"211":0.385635107755661,"212":0.8315544724464417,"213":0.8124940395355225,"214":-0.8273859024047852,"215":0.60895836353302,"216":-0.17892399430274963,"217":-1.1581261157989502,"218":-0.9696704745292664,"219":0.7635559439659119,"220":2.1491992473602295,"221":-0.6808838248252869,"222":0.18465960025787354,"223":-0.9359065890312195,"224":-0.802491307258606,"225":0.23518827557563782,"226":1.351489543914795,"227":1.0718690156936646,"228":0.0015059906290844083,"229":-0.2546749413013458,"230":-1.9522035121917725,"231":-0.5784701704978943,"232":-0.2056180238723755,"233":-0.8253555297851562,"234":0.9175339341163635,"235":-0.8539351224899292,"236":0.4972538948059082,"237":-0.38656067848205566,"238":0.08902333676815033,"239":-0.5467690229415894,"240":0.7626504302024841,"241":-0.6273994445800781,"242":-0.2521462142467499,"243":0.2094804346561432,"244":2.1362011432647705,"245":-1.674730896949768,"246":1.427138328552246,"247":-0.2953375279903412,"248":1.9352822303771973,"249":-1.0088989734649658,"250":1.1908963918685913,"251":0.26897716522216797,"252":-0.5227067470550537,"253":0.21440918743610382,"254":0.5056749582290649,"255":1.3720377683639526,"256":-0.6092522144317627,"257":0.13179895281791687,"258":0.8318094611167908,"259":-0.13063408434391022,"260":-0.1868634670972824,"261":-1.3012890815734863,"262":0.15400385856628418,"263":-1.6065326929092407,"264":-0.1355004757642746,"265":1.5317710638046265,"266":0.20217902958393097,"267":0.2695223093032837,"268":0.20992876589298248,"269":-1.1130049228668213,"270":0.521677553653717,"271":1.8976134061813354,"272":-0.18625621497631073,"273":0.3456079959869385,"274":-0.2833711504936218,"275":-0.8734734654426575,"276":0.4704691469669342,"277":1.3865643739700317,"278":-0.13947419822216034,"279":0.24133864045143127,"280":0.12773600220680237,"281":-1.9690388441085815,"282":-0.2980788052082062,"283":-0.5764452219009399,"284":-0.6727393865585327,"285":0.47251346707344055,"286":-0.348236620426178,"287":0.1210445910692215,"288":-0.3553963005542755,"289":-1.0600440502166748,"290":0.2403821498155594,"291":-0.7690088748931885,"292":1.0639454126358032,"293":-0.6552368402481079,"294":0.37169578671455383,"295":-0.18445947766304016,"296":-0.0033720904029905796,"297":1.3319056034088135,"298":-0.4110647737979889,"299":-0.05446283519268036,"300":0.2202937752008438,"301":0.39699071645736694,"302":-0.007023864891380072,"303":-0.03038637526333332,"304":0.3942728340625763,"305":-0.12351363152265549,"306":0.916395366191864,"307":-0.5998097062110901,"308":0.41765162348747253,"309":1.357262134552002,"310":-0.249473437666893,"311":-0.6026768684387207,"312":-3.0793442726135254,"313":0.7817439436912537,"314":-4.695584774017334,"315":5.330554008483887,"316":-0.7052700519561768,"317":-3.2786734104156494,"318":2.0261690616607666,"319":-1.2534654140472412,"320":-1.8240405321121216,"321":2.539135694503784,"322":-2.2831783294677734,"323":-1.5090631246566772,"324":-2.5774428844451904,"325":0.6258412003517151,"326":2.0576677322387695,"327":1.0374829769134521,"328":0.36644867062568665,"329":-0.530699610710144,"330":1.0530345439910889,"331":0.9110700488090515,"332":-1.520796775817871,"333":3.853485345840454,"334":2.1049046516418457,"335":2.4991626739501953,"336":1.5591367483139038,"337":-2.0854687690734863,"338":0.5335109829902649,"339":-0.38656023144721985,"340":3.5245087146759033,"341":2.1369128227233887,"342":1.3916655778884888,"343":2.121919631958008,"344":-4.030052661895752,"345":3.7065486907958984,"346":1.4223207235336304,"347":-0.0057604131288826466,"348":-1.7401536703109741,"349":0.8441706299781799,"350":-3.259897232055664,"351":0.31405457854270935,"352":1.4775477647781372,"353":-0.29972970485687256,"354":0.2791721522808075,"355":-0.9461742639541626,"356":3.0157270431518555,"357":2.00036358833313,"358":-2.31353497505188,"359":0.23065608739852905,"360":1.618562936782837,"361":0.37656018137931824,"362":-2.8941893577575684,"363":3.805981159210205,"364":0.009508905932307243,"365":-2.3855340480804443,"366":2.1041667461395264,"367":-2.331339120864868,"368":0.134124755859375,"369":0.20938479900360107,"370":-0.283234566450119,"371":1.1721194982528687,"372":-0.4631205201148987,"373":-2.2356557846069336,"374":-0.31459975242614746,"375":0.7974354028701782,"376":-0.12266875803470612,"377":-1.3406968116760254,"378":-0.6814255118370056,"379":-2.8978376388549805,"380":-1.0913740396499634,"381":0.5830415487289429,"382":1.3452811241149902,"383":-2.335151433944702,"384":2.0166540145874023,"385":-2.3631644248962402,"386":-0.8867273330688477,"387":0.4186507761478424,"388":0.7843705415725708,"389":2.686782121658325,"390":1.3306370973587036,"391":-0.833290696144104,"392":-0.4813748896121979,"393":-1.0846511125564575,"394":0.4913651943206787,"395":-1.7053487300872803,"396":1.3029382228851318,"397":-1.8251649141311646,"398":-0.6573073267936707,"399":0.5719866156578064,"400":0.8157665729522705,"401":-1.1649612188339233,"402":1.719873309135437,"403":0.2268262654542923,"404":-0.1613837033510208,"405":-1.109827995300293,"406":1.384518027305603,"407":0.5341780185699463,"408":-0.6235997676849365,"409":-1.584700107574463,"410":0.5761435031890869,"411":1.603434443473816,"412":-0.8137609958648682,"413":-0.14975331723690033,"414":0.5772141814231873,"415":-0.7980942726135254,"416":-1.157177448272705,"417":2.2378623485565186,"418":-1.4375717639923096,"419":1.495529055595398,"420":-0.5993890762329102,"421":0.12247242033481598,"422":2.957423686981201,"423":-0.72381591796875,"424":-2.3970067501068115,"425":-0.6088694930076599,"426":-0.9308149218559265,"427":0.1509677916765213,"428":-2.7051279544830322,"429":-1.239815592765808,"430":1.6062812805175781,"431":0.4592481851577759,"432":0.5717141032218933,"433":-1.53507399559021,"434":0.6044749617576599,"435":-1.6369701623916626,"436":-0.02475503832101822,"437":0.05597781762480736,"438":0.8409451246261597,"439":4.218077182769775,"440":-0.8539909720420837,"441":-0.21576501429080963,"442":0.7493958473205566,"443":-0.2363511323928833,"444":0.787861168384552,"445":0.27093151211738586,"446":0.020815307274460793,"447":0.293842613697052,"448":1.0948373079299927,"449":0.9232503175735474,"450":1.4442682266235352,"451":0.1302798092365265,"452":-1.4376804828643799,"453":-1.165076494216919,"454":0.4582965075969696,"455":0.4902552664279938,"456":0.6085021495819092,"457":-0.14246441423892975,"458":0.6009725332260132,"459":0.5348643064498901,"460":0.9617745876312256,"461":3.219743013381958,"462":-0.4207010269165039,"463":2.389331579208374,"464":1.3496978282928467,"465":-1.6890588998794556,"466":-0.28999844193458557,"467":1.1463360786437988,"468":-3.4341092109680176,"469":-3.5299136638641357,"470":-6.243405818939209,"471":3.842740058898926,"472":-4.560975551605225,"473":-8.067861557006836,"474":-5.340734004974365,"475":-5.949974060058594,"476":0.3134971857070923,"477":-2.8329379558563232,"478":-7.3073272705078125,"479":-8.210894584655762,"480":11.910306930541992,"481":-3.261608362197876,"482":-6.45535945892334,"483":-2.1536550521850586,"484":-9.225285530090332,"485":-8.292824745178223,"486":0.8905478119850159,"487":16.42160415649414,"488":4.868592262268066,"489":9.522836685180664,"490":-16.973129272460938,"491":-5.256087303161621,"492":-6.6607770919799805,"493":1.4121615886688232,"494":5.466585636138916,"495":-5.044483184814453,"496":3.096461772918701,"497":2.1969730854034424,"498":-3.6195085048675537,"499":3.788522958755493,"500":-9.918940544128418,"501":7.9504075050354,"502":-8.00100040435791,"503":4.445829391479492,"504":16.401866912841797,"505":-10.165639877319336,"506":-0.15865419805049896,"507":-3.4522008895874023,"508":7.1822190284729,"509":-15.272127151489258,"510":1.051323652267456,"511":2.507298231124878,"512":-1.6569358110427856,"513":-1.2123126983642578,"514":5.295691967010498,"515":14.563883781433105,"516":-3.0849666595458984,"517":0.9609918594360352,"518":4.220958709716797,"519":5.602982044219971,"520":-2.0963029861450195,"521":0.07684540003538132,"522":-0.6003438234329224,"523":-0.24374771118164062,"524":-2.40336275100708,"525":-1.213194727897644,"526":1.6262494325637817,"527":-0.508760929107666,"528":-0.9073641896247864,"529":0.8691628575325012,"530":0.2599070072174072,"531":-0.15938058495521545,"532":-1.4970184564590454,"533":1.0273256301879883,"534":0.46009838581085205,"535":0.5544984936714172,"536":2.849665641784668,"537":-0.8090307712554932,"538":-2.374173641204834,"539":-2.6897776126861572,"540":-0.8558602333068848,"541":0.9681563973426819,"542":2.081745147705078,"543":0.05256696790456772,"544":1.102264165878296,"545":-1.1074577569961548,"546":-2.2920751571655273,"547":3.1156930923461914,"548":-0.3093436062335968,"549":0.6089147329330444,"550":1.828466534614563,"551":0.2568182647228241,"552":-0.7462635636329651,"553":1.0964716672897339,"554":1.8087393045425415,"555":-2.079512596130371,"556":-2.399681329727173,"557":0.12263756990432739,"558":-2.5071864128112793,"559":-1.8481934070587158,"560":-3.415804862976074,"561":2.132352828979492,"562":-3.2186777591705322,"563":0.29424330592155457,"564":3.1522364616394043,"565":0.36972522735595703,"566":-1.3835643529891968,"567":-0.4127114415168762,"568":2.6906182765960693,"569":-0.21245592832565308,"570":-2.4111251831054688,"571":1.070098638534546,"572":2.99888014793396,"573":0.42326977849006653,"574":4.675793170928955,"575":-2.7821831703186035,"576":3.6814193725585938,"577":1.0558327436447144,"578":-1.2501527070999146,"579":0.6081660985946655,"580":1.744377613067627,"581":-0.4167633354663849,"582":2.769646406173706,"583":1.3227500915527344,"584":3.8480818271636963,"585":0.9084436893463135,"586":-1.0503368377685547,"587":-0.0998714342713356,"588":0.26674485206604004,"589":1.6485260725021362,"590":3.69830322265625,"591":-2.6785502433776855,"592":2.717406988143921,"593":-1.8707042932510376,"594":-2.098599433898926,"595":-1.8154637813568115,"596":-0.6605958342552185,"597":0.9534434080123901,"598":-0.4889189302921295,"599":0.9612066745758057,"600":-4.245439052581787,"601":-1.63714599609375,"602":-2.021122932434082,"603":0.7258335947990417,"604":2.070249080657959,"605":-0.7194510698318481,"606":-0.7417141199111938,"607":-0.3777933120727539,"608":0.8399051427841187,"609":0.7850033044815063,"610":3.620849847793579,"611":3.661358594894409,"612":-2.76123046875,"613":1.8564529418945312,"614":0.43918493390083313,"615":-1.5557607412338257,"616":-4.174065589904785,"617":-2.3479230403900146,"618":1.0634018182754517,"619":-1.7451462745666504,"620":-2.7303524017333984,"621":1.23397696018219,"622":4.634875774383545,"623":-1.4359692335128784,"624":0.19676846265792847,"625":-0.4697886109352112,"626":0.5420828461647034,"627":0.17167313396930695,"628":-0.17927193641662598,"629":0.5104524493217468,"630":0.28475892543792725,"631":-0.014685017988085747,"632":0.06921270489692688,"633":-1.2372345924377441,"634":2.1555821895599365,"635":0.09752728790044785,"636":-0.269861102104187,"637":0.5465641021728516,"638":-1.2687418460845947,"639":-1.1726534366607666,"640":1.0645910501480103,"641":-0.801433265209198,"642":-0.5569206476211548,"643":0.27820658683776855,"644":0.6902872920036316,"645":0.030647866427898407,"646":-0.7991777062416077,"647":-2.720649003982544,"648":-0.5621750950813293,"649":-0.881105363368988,"650":-1.8772354125976562,"651":1.6972055435180664,"652":-3.1564886569976807,"653":-0.8120851516723633,"654":-0.07858799397945404,"655":-0.25215181708335876,"656":0.8621877431869507,"657":0.6296288371086121,"658":0.40694907307624817,"659":-0.21203181147575378,"660":0.0414334312081337,"661":-1.276315450668335,"662":-0.3532588481903076,"663":-0.826093316078186,"664":-1.6184550523757935,"665":1.6191446781158447,"666":-1.7456730604171753,"667":-0.9473733305931091,"668":0.33031389117240906,"669":0.48332151770591736,"670":1.3041247129440308,"671":-1.3910940885543823,"672":0.2505267858505249,"673":0.7286601662635803,"674":-0.3632529079914093,"675":-0.942711591720581,"676":-0.11423718184232712,"677":0.616104245185852,"678":0.3172909617424011,"679":1.5467759370803833,"680":-0.09952215105295181,"681":-1.2253392934799194,"682":0.6467459797859192,"683":-0.9424967765808105,"684":0.6392573118209839,"685":-0.377651572227478,"686":3.8472096920013428,"687":0.163116917014122,"688":1.1406875848770142,"689":1.6297006607055664,"690":-0.7037895917892456,"691":-0.31598344445228577,"692":0.710673987865448,"693":-0.4610746502876282,"694":0.7822057008743286,"695":-0.5233214497566223,"696":2.39847469329834,"697":0.7995557188987732,"698":1.0441575050354004,"699":-1.0893625020980835,"700":0.7038697004318237,"701":-0.8449569344520569,"702":-0.8323190808296204,"703":0.6109921932220459,"704":-1.2737784385681152,"705":-0.3902209401130676,"706":1.7224878072738647,"707":1.0356179475784302,"708":0.4396965801715851,"709":0.5983560681343079,"710":1.05770742893219,"711":-1.0909088850021362,"712":-0.3653787672519684,"713":1.57217538356781,"714":-0.08108966797590256,"715":0.16913746297359467,"716":-2.431530714035034,"717":-0.02586357668042183,"718":-0.8269632458686829,"719":-4.4719672203063965,"720":0.4339882433414459,"721":0.061769455671310425,"722":0.7111766934394836,"723":-2.445013999938965,"724":0.9663431644439697,"725":0.273253470659256,"726":-1.040465235710144,"727":0.6555110216140747,"728":-2.0352377891540527,"729":0.31895196437835693,"730":-1.495970368385315,"731":0.26209303736686707,"732":-2.389472484588623,"733":-0.5466967821121216,"734":1.1423484086990356,"735":-0.5752739906311035,"736":-1.3852078914642334,"737":0.8864285349845886,"738":0.6491197347640991,"739":-0.7323357462882996,"740":-1.997069001197815,"741":1.2514451742172241,"742":0.3232014775276184,"743":0.8060542941093445,"744":3.0476396083831787,"745":-0.5306567549705505,"746":-2.2992255687713623,"747":-1.1797926425933838,"748":-0.4360753297805786,"749":0.9695535898208618,"750":2.095355987548828,"751":1.7206394672393799,"752":0.8526099324226379,"753":-1.8057348728179932,"754":-2.6402668952941895,"755":3.2385709285736084,"756":-0.333566278219223,"757":0.6621842980384827,"758":2.6925086975097656,"759":0.4263671636581421,"760":-0.5768575072288513,"761":0.8783177733421326,"762":2.532474994659424,"763":-2.5078823566436768,"764":-3.416959285736084,"765":3.6164984703063965,"766":-2.760267496109009,"767":-2.172077178955078,"768":-1.1961501836776733,"769":3.58720064163208,"770":-3.435122013092041,"771":-0.19403886795043945,"772":3.1501317024230957,"773":1.6735405921936035,"774":-2.013946771621704,"775":-1.0402017831802368,"776":2.781101703643799,"777":-0.43351611495018005,"778":-2.5388662815093994,"779":0.764808177947998,"780":-1.0732461214065552,"781":2.83609938621521,"782":0.013600512407720089,"783":1.262149691581726,"784":-0.13916389644145966,"785":-1.3489590883255005,"786":-1.7336074113845825,"787":-1.7297102212905884,"788":0.6335969567298889,"789":0.9927592873573303,"790":-4.382269382476807,"791":0.1472485065460205,"792":0.15930573642253876,"793":-2.2172036170959473,"794":1.6100763082504272,"795":1.8579710721969604,"796":-3.5228147506713867,"797":-2.655632495880127,"798":2.7620697021484375,"799":0.7087123990058899,"800":-2.7320024967193604,"801":1.3351991176605225,"802":0.6281149387359619,"803":0.19834698736667633,"804":1.6041851043701172,"805":3.0921378135681152,"806":2.2144851684570312,"807":-2.156428337097168,"808":3.3753910064697266,"809":2.726327896118164,"810":-2.297991991043091,"811":1.070056676864624,"812":-2.6755127906799316,"813":1.186725378036499,"814":-2.624161720275879,"815":2.4071271419525146,"816":2.001844644546509,"817":-1.0834705829620361,"818":1.2017673254013062,"819":1.673170566558838,"820":2.6017017364501953,"821":-2.7311856746673584,"822":2.2563345432281494,"823":3.9959845542907715,"824":-2.564633846282959,"825":0.1894391030073166,"826":1.4693028926849365,"827":2.5699241161346436,"828":-3.038145065307617,"829":-2.0465781688690186,"830":1.9372360706329346,"831":3.3386826515197754,"832":1.5636742115020752,"833":-0.9209860563278198,"834":0.45691344141960144,"835":0.6904749870300293,"836":1.6748613119125366,"837":-0.18061168491840363,"838":-1.1813338994979858,"839":-0.07826452702283859,"840":1.5674731731414795,"841":-1.2088161706924438,"842":0.29117169976234436,"843":-0.14917324483394623,"844":0.7508320212364197,"845":-0.3021579682826996,"846":0.4915127158164978,"847":-0.8541086316108704,"848":-1.7249131202697754,"849":0.8531232476234436,"850":2.655390739440918,"851":2.3642842769622803,"852":-0.13033169507980347,"853":-0.08351244777441025,"854":-1.4347869157791138,"855":-1.2537261247634888,"856":0.003436748869717121,"857":-0.5818106532096863,"858":2.0379397869110107,"859":-1.7082955837249756,"860":-0.42235755920410156,"861":-0.6286827921867371,"862":-0.43772462010383606,"863":-0.3673003017902374,"864":0.14849324524402618,"865":0.2631039321422577,"866":-0.22231841087341309,"867":2.18084716796875,"868":1.989250898361206,"869":-3.171736478805542,"870":1.888292670249939,"871":2.219813823699951,"872":-1.2052996158599854,"873":-2.3164525032043457,"874":2.971088409423828,"875":-0.8158265948295593,"876":-0.7184709906578064,"877":-1.3441641330718994,"878":2.605313539505005,"879":-2.4728732109069824,"880":0.5379645228385925,"881":1.1479078531265259,"882":-0.2975480258464813,"883":-0.2907502353191376,"884":-0.4598703384399414,"885":9.12603759765625,"886":-6.329579830169678,"887":0.9381682276725769,"888":-7.123784065246582,"889":-10.66562271118164,"890":7.90570592880249,"891":-9.166833877563477,"892":-4.614126682281494,"893":7.715875625610352,"894":-1.1659513711929321,"895":-6.58133602142334,"896":-0.9823789000511169,"897":7.123817443847656,"898":10.153192520141602,"899":10.227596282958984,"900":4.808774471282959,"901":-7.762275218963623,"902":-3.011155843734741,"903":-0.7628385424613953,"904":-4.754101753234863,"905":5.63855504989624,"906":3.0532984733581543,"907":11.504603385925293,"908":8.73361873626709,"909":-7.277278423309326,"910":2.8025829792022705,"911":-0.36573702096939087,"912":0.5758161544799805,"913":9.183876991271973,"914":2.772148609161377,"915":10.231873512268066,"916":-12.212872505187988,"917":0.19101786613464355,"918":6.2899065017700195,"919":-5.666698455810547,"920":-5.505527496337891,"921":3.642909049987793,"922":-5.932193756103516,"923":2.177734375,"924":-0.4558466672897339,"925":-2.117568016052246,"926":-2.4317574501037598,"927":-2.2954483032226562,"928":4.148633003234863,"929":3.409862518310547,"930":-7.681841850280762,"931":0.10677507519721985,"932":9.863696098327637,"933":-7.989172458648682,"934":-5.518526077270508,"935":2.7694830894470215,"936":-0.5756140947341919,"937":-5.042549133300781,"938":4.236447811126709,"939":-4.808587074279785,"940":-1.6589419841766357,"941":2.3203394412994385,"942":-0.5350162386894226,"943":2.6193716526031494,"944":-1.0110795497894287,"945":-4.133766174316406,"946":4.0484466552734375,"947":0.9836831092834473,"948":1.2601041793823242,"949":1.4052042961120605,"950":-3.1667792797088623,"951":-3.8293375968933105,"952":-0.6048665642738342,"953":1.6443485021591187,"954":-0.6369905471801758,"955":4.289809703826904,"956":4.467212200164795,"957":-3.0492992401123047,"958":-2.8954246044158936,"959":-0.8325148224830627,"960":-4.996500492095947,"961":5.362575531005859,"962":-0.26881077885627747,"963":0.5291370749473572,"964":-4.951633453369141,"965":-3.6818134784698486,"966":-0.2182520478963852,"967":-4.314265727996826,"968":4.332480430603027,"969":-4.233982086181641,"970":-0.6820517778396606,"971":0.15868933498859406,"972":1.2195206880569458,"973":2.0929369926452637,"974":1.269743800163269,"975":-3.44051456451416,"976":4.29835844039917,"977":-0.9109956622123718,"978":0.2797139585018158,"979":-3.461326837539673,"980":-1.4048960208892822,"981":1.8159184455871582,"982":1.3926953077316284,"983":-1.7016091346740723,"984":-0.8058192133903503,"985":3.093196392059326,"986":0.18704397976398468,"987":-3.079094648361206,"988":0.5625258088111877,"989":-1.697123646736145,"990":2.097766160964966,"991":-1.31499183177948,"992":0.5771000385284424,"993":1.008088231086731,"994":-1.4185194969177246,"995":1.6454994678497314,"996":1.8666397333145142,"997":-0.8900663256645203,"998":1.7018240690231323,"999":0.7195548415184021,"1000":1.4439339637756348,"1001":0.12740352749824524,"1002":-1.472625494003296,"1003":-1.50639808177948,"1004":-1.2358906269073486,"1005":1.7380131483078003,"1006":0.28874924778938293,"1007":0.12662357091903687,"1008":1.8075875043869019,"1009":-0.3794343173503876,"1010":-1.6619961261749268,"1011":-1.7346895933151245,"1012":-0.3087157607078552,"1013":1.7964940071105957,"1014":0.6879017353057861,"1015":-0.37622037529945374,"1016":-1.7004268169403076,"1017":-1.3551084995269775,"1018":-0.2515508532524109,"1019":-1.916159987449646,"1020":0.9656538963317871,"1021":-0.961648166179657,"1022":-1.390334963798523,"1023":1.0531129837036133,"1024":1.114184856414795,"1025":1.459742546081543,"1026":0.6905218362808228,"1027":0.004280535504221916,"1028":0.08364615589380264,"1029":-0.8195683360099792,"1030":0.5484541654586792,"1031":-0.9124511480331421,"1032":-1.2938340902328491,"1033":-2.346858501434326,"1034":1.0690184831619263,"1035":-1.3901119232177734,"1036":-1.420960783958435,"1037":1.3578604459762573,"1038":0.8657128214836121,"1039":-1.8355073928833008,"1040":-0.25922876596450806,"1041":-1.4797825813293457,"1042":1.1641572713851929,"1043":-2.721011161804199,"1044":-0.5549073815345764,"1045":0.9395899176597595,"1046":0.1556837111711502,"1047":0.18700465559959412,"1048":-2.2006542682647705,"1049":-1.6790632009506226,"1050":0.7215303182601929,"1051":0.7277234196662903,"1052":1.159461498260498,"1053":-0.0013634386705234647,"1054":-1.8342853784561157,"1055":-1.3894879817962646,"1056":1.0812559127807617,"1057":-0.5861671566963196,"1058":-0.985098123550415,"1059":0.35554394125938416,"1060":2.9883744716644287,"1061":-0.7177532911300659,"1062":-0.8210786581039429,"1063":-2.144670248031616,"1064":-1.6038105487823486,"1065":0.437347412109375,"1066":-0.5966631770133972,"1067":1.2016938924789429,"1068":-3.2389702796936035,"1069":-1.54800283908844,"1070":1.4137823581695557,"1071":-0.044804107397794724,"1072":1.3150278329849243,"1073":-0.13988511264324188,"1074":0.7119454741477966,"1075":-1.027409553527832,"1076":0.3407246470451355,"1077":-0.135732501745224,"1078":0.3847561180591583,"1079":-2.1418864727020264,"1080":-0.16214244067668915,"1081":0.764650285243988,"1082":-0.7405900955200195,"1083":-0.3323283791542053,"1084":0.35319218039512634,"1085":-1.223549723625183,"1086":0.7164162397384644,"1087":1.1996536254882812,"1088":0.7005126476287842,"1089":1.2719582319259644,"1090":-0.528492271900177,"1091":-2.445584297180176,"1092":2.326338052749634,"1093":0.6125835180282593,"1094":4.7527971267700195,"1095":1.788056492805481,"1096":2.240381956100464,"1097":-1.2526373863220215,"1098":1.2700574398040771,"1099":-0.5025212168693542,"1100":2.0459673404693604,"1101":1.4031078815460205,"1102":3.744814157485962,"1103":-1.3918969631195068,"1104":-0.024490030482411385,"1105":0.5521844029426575,"1106":0.4978044033050537,"1107":0.7508853077888489,"1108":4.661247730255127,"1109":-0.14198148250579834,"1110":-0.6537436246871948,"1111":-0.9190423488616943,"1112":-1.1719105243682861,"1113":2.449859380722046,"1114":3.447054862976074,"1115":-4.524506092071533,"1116":1.3175125122070312,"1117":-3.3581931591033936,"1118":-4.129973888397217,"1119":1.4706875085830688,"1120":-4.049387454986572,"1121":0.5886442065238953,"1122":1.0625677108764648,"1123":1.0798869132995605,"1124":-0.255471408367157,"1125":2.015162467956543,"1126":2.570908308029175,"1127":-5.191533088684082,"1128":-1.132671594619751,"1129":-1.1009529829025269,"1130":1.170639157295227,"1131":-1.5624427795410156,"1132":-1.639377236366272,"1133":3.8621559143066406,"1134":-0.9960474967956543,"1135":0.23700323700904846,"1136":2.5484981536865234,"1137":-0.5448010563850403,"1138":2.7784905433654785,"1139":-1.7653496265411377,"1140":0.06032954901456833,"1141":-0.8551230430603027,"1142":0.38013774156570435,"1143":0.23041032254695892,"1144":-4.854822635650635,"1145":4.566312789916992,"1146":-4.793278217315674,"1147":4.9924163818359375,"1148":-4.924111366271973,"1149":-5.100899696350098,"1150":4.935932636260986,"1151":-5.034595966339111,"1152":-4.5690717697143555,"1153":5.223597526550293,"1154":-3.8208060264587402,"1155":-5.082625865936279,"1156":-4.527219772338867,"1157":6.1500244140625,"1158":4.500851631164551,"1159":4.809347629547119,"1160":5.319492816925049,"1161":-4.72709321975708,"1162":-4.879941940307617,"1163":-4.481464385986328,"1164":-5.132638454437256,"1165":5.128000259399414,"1166":4.797181129455566,"1167":4.115627288818359,"1168":5.187856674194336,"1169":-4.771537780761719,"1170":-5.401107311248779,"1171":5.070328235626221,"1172":4.623626232147217,"1173":4.572684288024902,"1174":5.100949287414551,"1175":4.865611553192139,"1176":-4.810410022735596,"1177":4.986392021179199,"1178":4.998415946960449,"1179":-5.28747034072876,"1180":-4.8789191246032715,"1181":5.818885803222656,"1182":-5.332615852355957,"1183":-4.9340715408325195,"1184":4.123350143432617,"1185":5.129868507385254,"1186":-5.17689323425293,"1187":5.2094268798828125,"1188":4.872589588165283,"1189":4.512110233306885,"1190":-4.797411918640137,"1191":-5.109884262084961,"1192":5.079504489898682,"1193":-4.454740524291992,"1194":-5.075540542602539,"1195":4.5379133224487305,"1196":-5.08897066116333,"1197":1.1630536317825317,"1198":-5.4097795486450195,"1199":3.2635457515716553,"1200":-4.251119613647461,"1201":-3.5383546352386475,"1202":0.12035154551267624,"1203":-3.2797043323516846,"1204":-2.287156105041504,"1205":1.8908483982086182,"1206":-5.897309303283691,"1207":-3.370995044708252,"1208":-4.089108467102051,"1209":-1.152826189994812,"1210":3.4580070972442627,"1211":1.2349653244018555,"1212":-0.8093726634979248,"1213":-2.523512601852417,"1214":-1.0945135354995728,"1215":-2.1484787464141846,"1216":-1.8831143379211426,"1217":3.271182060241699,"1218":0.20093339681625366,"1219":2.7778706550598145,"1220":1.2922179698944092,"1221":0.5488587021827698,"1222":0.5331339240074158,"1223":1.473136067390442,"1224":5.511754035949707,"1225":3.945847511291504,"1226":1.8489532470703125,"1227":0.8856925964355469,"1228":-4.647700786590576,"1229":3.8440511226654053,"1230":0.05222097784280777,"1231":0.9791762232780457,"1232":-0.7439059615135193,"1233":0.5263246893882751,"1234":-3.4839298725128174,"1235":-2.8358747959136963,"1236":4.05666971206665,"1237":0.08829274773597717,"1238":-2.0493099689483643,"1239":2.8005895614624023,"1240":2.4902563095092773,"1241":1.238977313041687,"1242":-2.710075616836548,"1243":4.925450801849365,"1244":-0.24590669572353363,"1245":-2.246966600418091,"1246":-2.749393939971924,"1247":4.4505181312561035,"1248":-0.14143481850624084,"1249":3.9599201679229736,"1250":2.6278958320617676,"1251":5.9796929359436035,"1252":0.07669749110937119,"1253":-4.783071041107178,"1254":-2.7911465167999268,"1255":-4.161203384399414,"1256":-2.7681381702423096,"1257":5.091899394989014,"1258":0.1548655480146408,"1259":-4.238677501678467,"1260":4.203126430511475,"1261":-6.982100963592529,"1262":3.8532071113586426,"1263":3.7058053016662598,"1264":-0.3632524311542511,"1265":-3.1834816932678223,"1266":-0.6627037525177002,"1267":-1.9779362678527832,"1268":-2.0878190994262695,"1269":4.251394271850586,"1270":2.067223310470581,"1271":5.277197360992432,"1272":4.988505840301514,"1273":-4.865392208099365,"1274":4.086823463439941,"1275":-0.5371317863464355,"1276":5.312744140625,"1277":2.9208247661590576,"1278":-0.025902213528752327,"1279":3.516011953353882,"1280":-4.8061442375183105,"1281":3.445709466934204,"1282":0.10374633967876434,"1283":-0.9077112078666687,"1284":1.095473289489746,"1285":-0.6425995826721191,"1286":1.9377254247665405,"1287":1.540774941444397,"1288":-1.5480808019638062,"1289":0.31439831852912903,"1290":2.330543041229248,"1291":0.2577386796474457,"1292":-0.26785048842430115,"1293":4.906403541564941,"1294":-3.665809154510498,"1295":1.8653398752212524,"1296":-1.6986124515533447,"1297":-4.4720234870910645,"1298":1.3950719833374023,"1299":4.728194236755371,"1300":-2.5041887760162354,"1301":-2.728430986404419,"1302":1.1277233362197876,"1303":0.7055053114891052,"1304":-0.4293723404407501,"1305":-1.4181104898452759,"1306":-6.176237106323242,"1307":1.5522633790969849,"1308":-1.9871351718902588,"1309":-4.4645676612854,"1310":2.93998384475708,"1311":2.522059202194214,"1312":2.5169677734375,"1313":-4.036254405975342,"1314":-2.8209309577941895,"1315":-3.8630077838897705,"1316":-3.2686069011688232,"1317":1.5893316268920898,"1318":-1.4892481565475464,"1319":0.9835705161094666,"1320":4.956289291381836,"1321":4.665966987609863,"1322":-6.430121421813965,"1323":-6.055353164672852,"1324":-3.782238483428955,"1325":-0.49400654435157776,"1326":-0.9371808767318726,"1327":2.5845859050750732,"1328":-4.4647135734558105,"1329":-3.5794050693511963,"1330":3.8391666412353516,"1331":2.9178285598754883,"1332":0.12467371672391891,"1333":0.6885632872581482,"1334":-1.4086607694625854,"1335":0.07488550245761871,"1336":2.9743151664733887,"1337":-1.9939863681793213,"1338":1.8400170803070068,"1339":-6.07374906539917,"1340":-0.8380218148231506,"1341":-0.7674468159675598,"1342":-0.11061366647481918,"1343":-2.343219041824341,"1344":-2.526878833770752,"1345":3.1801421642303467,"1346":2.329177141189575,"1347":1.530079960823059,"1348":-4.068099498748779,"1349":3.3838958740234375,"1350":0.6729332804679871,"1351":0.35159432888031006,"1352":3.481686592102051,"1353":0.5033162236213684,"1354":-1.0314253568649292,"1355":1.5433441400527954,"1356":4.214818477630615,"1357":-0.6640105247497559,"1358":-1.2710717916488647,"1359":-1.793186068534851,"1360":0.7285016775131226,"1361":0.3500572741031647,"1362":-3.221863269805908,"1363":-0.83029705286026,"1364":0.781390368938446,"1365":-1.8961772918701172,"1366":1.3639562129974365,"1367":0.5297531485557556,"1368":-3.4948174953460693,"1369":-1.2254307270050049,"1370":4.095703125,"1371":7.1061553955078125,"1372":-3.176344156265259,"1373":2.0025227069854736,"1374":-1.4485539197921753,"1375":0.04142364114522934,"1376":-0.3312234878540039,"1377":-1.3545843362808228,"1378":4.376813888549805,"1379":-3.1550655364990234,"1380":2.9753639698028564,"1381":1.5001293420791626,"1382":-4.598333358764648,"1383":0.22710131108760834,"1384":-0.490377277135849,"1385":2.405719757080078,"1386":-4.99634313583374,"1387":4.46400260925293,"1388":1.3298348188400269,"1389":-3.814478635787964,"1390":3.9008095264434814,"1391":4.163156986236572,"1392":5.941861629486084,"1393":-4.263612270355225,"1394":3.099637508392334,"1395":3.1548779010772705,"1396":-5.5840349197387695,"1397":1.409505844116211,"1398":1.1044421195983887,"1399":5.517092704772949,"1400":-4.237730503082275,"1401":-1.1844627857208252,"1402":5.102178573608398,"1403":1.7158993482589722,"1404":-2.7381553649902344,"1405":1.4406393766403198,"1406":-2.6044845581054688,"1407":2.171903371810913,"1408":-1.453810691833496,"1409":-3.6867904663085938,"1410":3.819852113723755,"1411":-0.7403172254562378,"1412":-1.2650789022445679,"1413":-0.5135425329208374,"1414":-2.530442476272583,"1415":0.17611558735370636,"1416":-3.9512619972229004,"1417":0.7668943405151367,"1418":2.493562698364258,"1419":-0.49192938208580017,"1420":-0.2814076542854309,"1421":-2.3620378971099854,"1422":-0.19912269711494446,"1423":-2.8998055458068848,"1424":-1.813856601715088,"1425":0.6793303489685059,"1426":3.7069225311279297,"1427":5.27644681930542,"1428":2.9224483966827393,"1429":-0.9274510145187378,"1430":-1.590657353401184,"1431":2.289030075073242,"1432":4.605123043060303,"1433":1.2685796022415161,"1434":1.241030216217041,"1435":1.7090572118759155,"1436":-2.347736358642578,"1437":-0.21721400320529938,"1438":1.7032909393310547,"1439":1.0875667333602905,"1440":-2.582672595977783,"1441":2.0763072967529297,"1442":-2.4042253494262695,"1443":-1.711669921875,"1444":4.065752983093262,"1445":-0.779569685459137,"1446":-1.5873011350631714,"1447":1.363175630569458,"1448":3.075324058532715,"1449":2.5613222122192383,"1450":-2.410407066345215,"1451":3.410700798034668,"1452":1.4002704620361328,"1453":-1.8069100379943848,"1454":-2.9275779724121094,"1455":3.4164178371429443,"1456":1.565909504890442,"1457":-0.881122887134552,"1458":1.3073077201843262,"1459":3.318399429321289,"1460":0.48659849166870117,"1461":0.7472379803657532,"1462":-4.352915287017822,"1463":0.6273199319839478,"1464":0.7490205764770508,"1465":-0.46034058928489685,"1466":0.4217492938041687,"1467":1.1662914752960205,"1468":4.545849323272705,"1469":1.025322675704956,"1470":-0.7807133197784424,"1471":-0.839052140712738,"1472":-1.5013980865478516,"1473":0.07835937291383743,"1474":1.0561858415603638,"1475":4.2163496017456055,"1476":-0.08682438731193542,"1477":0.7932558059692383,"1478":-2.658987522125244,"1479":-1.4440038204193115,"1480":-0.7887115478515625,"1481":-3.048262119293213,"1482":1.1232415437698364,"1483":0.24359267950057983,"1484":1.3963202238082886,"1485":-0.5017059445381165,"1486":-2.341331720352173,"1487":-0.28900179266929626,"1488":0.04594897851347923,"1489":0.9604012966156006,"1490":-2.496669054031372,"1491":1.7240973711013794,"1492":4.849526405334473,"1493":0.46650615334510803,"1494":0.7048840522766113,"1495":-1.0340818166732788,"1496":3.3016245365142822,"1497":-1.003794550895691,"1498":-0.9355570077896118,"1499":-1.6420649290084839,"1500":-3.03692889213562,"1501":-0.8349930047988892,"1502":3.390920400619507,"1503":-0.4158598780632019,"1504":-2.4906601905822754,"1505":1.6589375734329224,"1506":1.7629796266555786,"1507":-0.18348103761672974,"1508":1.408157229423523,"1509":1.3335626125335693,"1510":-0.7530689239501953,"1511":2.2604050636291504,"1512":3.986060380935669,"1513":1.8240998983383179,"1514":-0.9115334749221802,"1515":3.1674389839172363,"1516":1.9013615846633911,"1517":-0.8224813938140869,"1518":-1.755881905555725,"1519":2.223583698272705,"1520":-1.1612261533737183,"1521":-0.8621312379837036,"1522":0.23279374837875366,"1523":0.8770298361778259,"1524":-2.178212881088257,"1525":0.700270414352417,"1526":2.173485279083252,"1527":5.896569728851318,"1528":-3.761761426925659,"1529":1.0690141916275024,"1530":-0.30412936210632324,"1531":0.3275197446346283,"1532":-1.9976530075073242,"1533":-4.147465705871582,"1534":2.1112864017486572,"1535":-1.82671058177948,"1536":2.472494125366211,"1537":-0.8687494993209839,"1538":-3.440899610519409,"1539":2.1703333854675293,"1540":-1.7475677728652954,"1541":0.34178775548934937,"1542":-1.5152126550674438,"1543":4.511369705200195,"1544":1.3592381477355957,"1545":-2.365771770477295,"1546":3.119704008102417,"1547":3.033909320831299,"1548":1.6372827291488647,"1549":-3.5061163902282715,"1550":2.5165977478027344,"1551":0.7776321172714233,"1552":0.1061859130859375,"1553":2.7523934841156006,"1554":3.0951690673828125,"1555":2.3224024772644043,"1556":-0.27195847034454346,"1557":1.632799744606018,"1558":-1.040771245956421,"1559":4.076702117919922,"1560":-6.152782440185547,"1561":2.124603033065796,"1562":-10.967681884765625,"1563":-3.828645706176758,"1564":-3.9228293895721436,"1565":-8.887706756591797,"1566":2.155319929122925,"1567":-8.532342910766602,"1568":-4.271982192993164,"1569":4.422202110290527,"1570":-1.8967907428741455,"1571":-1.5851682424545288,"1572":-4.223464012145996,"1573":-0.8792036175727844,"1574":3.4641714096069336,"1575":2.631298542022705,"1576":1.5596344470977783,"1577":-10.149656295776367,"1578":-2.3587210178375244,"1579":-3.5838210582733154,"1580":0.7419341802597046,"1581":3.1124284267425537,"1582":3.746544361114502,"1583":0.8940459489822388,"1584":5.278982162475586,"1585":3.220979928970337,"1586":-1.6008596420288086,"1587":3.8999152183532715,"1588":1.4522253274917603,"1589":7.655135154724121,"1590":3.740825653076172,"1591":5.475997447967529,"1592":-6.150923728942871,"1593":4.700912952423096,"1594":1.0072299242019653,"1595":-2.1895391941070557,"1596":-3.956242322921753,"1597":0.45200952887535095,"1598":-3.1557528972625732,"1599":-1.3208097219467163,"1600":-4.395648956298828,"1601":1.7282905578613281,"1602":-4.024916172027588,"1603":4.538476467132568,"1604":2.547088384628296,"1605":1.2975045442581177,"1606":-7.485098361968994,"1607":0.27939003705978394,"1608":1.604089617729187,"1609":-8.387348175048828,"1610":-4.0051798820495605,"1611":1.0194897651672363,"1612":0.15724655985832214,"1613":-5.497526168823242,"1614":-4.819642066955566,"1615":4.748096466064453,"1616":1.8855557441711426,"1617":-0.7782527208328247,"1618":-2.3747997283935547,"1619":-2.9720351696014404,"1620":-0.8023197650909424,"1621":-5.204117774963379,"1622":5.643270492553711,"1623":2.3458595275878906,"1624":1.5079689025878906,"1625":1.268926739692688,"1626":-5.995861053466797,"1627":-5.916587829589844,"1628":2.2514753341674805,"1629":0.6146769523620605,"1630":0.5034022927284241,"1631":1.0423914194107056,"1632":6.606387138366699,"1633":3.8382279872894287,"1634":0.16716328263282776,"1635":-9.177656173706055,"1636":2.2332098484039307,"1637":1.736433506011963,"1638":-1.5690417289733887,"1639":0.4863959550857544,"1640":-5.941940784454346,"1641":-5.738269329071045,"1642":3.7504372596740723,"1643":1.4875167608261108,"1644":5.323095321655273,"1645":4.538301467895508,"1646":2.165377378463745,"1647":-3.4219889640808105,"1648":1.4039280414581299,"1649":-1.0061722993850708,"1650":1.2870396375656128,"1651":-1.8317272663116455,"1652":-6.806469917297363,"1653":0.5436154007911682,"1654":2.2511963844299316,"1655":-6.7567901611328125,"1656":-0.72064208984375,"1657":-7.441019058227539,"1658":2.4239931106567383,"1659":-0.9799709320068359,"1660":-0.7964440584182739,"1661":5.464420795440674,"1662":0.47748419642448425,"1663":-5.859011650085449,"1664":0.16380949318408966,"1665":0.2779819965362549,"1666":1.6115427017211914,"1667":3.171128511428833,"1668":0.0889521986246109,"1669":-4.077492713928223,"1670":0.6791009902954102,"1671":-2.193821907043457,"1672":2.3233959674835205,"1673":2.8509268760681152,"1674":1.1772724390029907,"1675":-1.5159931182861328,"1676":2.968733549118042,"1677":1.2989705801010132,"1678":2.3044631481170654,"1679":2.3213419914245605,"1680":1.490849494934082,"1681":-3.2653603553771973,"1682":0.6819868087768555,"1683":2.3441507816314697,"1684":-4.142101764678955,"1685":2.7382724285125732,"1686":1.9441477060317993,"1687":-2.0298359394073486,"1688":4.83210563659668,"1689":-3.21466326713562,"1690":-1.1267659664154053,"1691":-0.1975201517343521,"1692":3.0085647106170654,"1693":2.4011759757995605,"1694":0.6250160336494446,"1695":-0.5191163420677185,"1696":-2.7376654148101807,"1697":1.5922843217849731,"1698":0.8738672733306885,"1699":-1.4805989265441895,"1700":0.9619854092597961,"1701":2.591625690460205,"1702":-1.983052134513855,"1703":0.9661960601806641,"1704":3.5727269649505615,"1705":0.6346306204795837,"1706":-1.222813367843628,"1707":2.075622081756592,"1708":-0.388385146856308,"1709":-2.243253469467163,"1710":1.5049612522125244,"1711":-0.0015759996604174376,"1712":1.3514760732650757,"1713":-1.1444551944732666,"1714":-0.521835446357727,"1715":0.7612114548683167,"1716":-2.3418538570404053,"1717":5.338844299316406,"1718":-4.5809221267700195,"1719":2.250640869140625,"1720":-2.109067440032959,"1721":-3.347435474395752,"1722":4.806133270263672,"1723":-3.5197789669036865,"1724":-5.540639400482178,"1725":3.8215503692626953,"1726":2.8837685585021973,"1727":-2.710808277130127,"1728":-6.086658954620361,"1729":3.2354860305786133,"1730":3.4077136516571045,"1731":4.326138019561768,"1732":1.863617181777954,"1733":-4.225405216217041,"1734":-1.420326828956604,"1735":-8.63344669342041,"1736":-2.1372673511505127,"1737":1.8938918113708496,"1738":4.864414691925049,"1739":4.02000093460083,"1740":2.0978758335113525,"1741":-4.654893398284912,"1742":-0.8707362413406372,"1743":1.2707384824752808,"1744":-6.1760969161987305,"1745":3.7734169960021973,"1746":2.3492679595947266,"1747":5.385811805725098,"1748":-2.6427605152130127,"1749":2.8069634437561035,"1750":2.7304112911224365,"1751":-1.9157025814056396,"1752":-5.4951863288879395,"1753":1.309888482093811,"1754":-1.2150824069976807,"1755":-2.3699891567230225,"1756":-2.516124725341797,"1757":2.6857500076293945,"1758":-1.7676283121109009,"1759":1.9617111682891846,"1760":3.3536388874053955,"1761":7.968962669372559,"1762":-5.61180305480957,"1763":0.098564013838768,"1764":2.525338888168335,"1765":-5.847011566162109,"1766":-0.6374214887619019,"1767":2.8785006999969482,"1768":0.028721079230308533,"1769":-0.8460789918899536,"1770":0.6376906037330627,"1771":0.06983879953622818,"1772":0.28707578778266907,"1773":0.3281837999820709,"1774":-1.8619532585144043,"1775":2.3382394313812256,"1776":0.22452691197395325,"1777":0.1955653727054596,"1778":0.5496558547019958,"1779":-0.22430044412612915,"1780":0.8654764294624329,"1781":0.21100172400474548,"1782":-0.772549033164978,"1783":-0.3050064146518707,"1784":-1.0519520044326782,"1785":3.1716291904449463,"1786":-0.5514945387840271,"1787":-0.23985165357589722,"1788":1.4132617712020874,"1789":-0.09896337985992432,"1790":-0.6338438391685486,"1791":0.6826885938644409,"1792":-0.2636166512966156,"1793":2.1827242374420166,"1794":-0.5372747182846069,"1795":-0.5960924029350281,"1796":-0.2697097659111023,"1797":-0.3249301314353943,"1798":-0.08395172655582428,"1799":-2.040666341781616,"1800":0.3317345380783081,"1801":-1.9811701774597168,"1802":-1.2046834230422974,"1803":0.2021775096654892,"1804":0.4973340332508087,"1805":0.8783282041549683,"1806":-0.1945035308599472,"1807":-1.2591652870178223,"1808":-0.07624778151512146,"1809":-0.7248032093048096,"1810":0.5462372303009033,"1811":-2.0683372020721436,"1812":-1.2471929788589478,"1813":0.35947418212890625,"1814":-0.5856268405914307,"1815":-1.5234088897705078,"1816":-1.3700823783874512,"1817":0.6606735587120056,"1818":0.7241271734237671,"1819":-1.1440552473068237,"1820":-6.195487022399902,"1821":-11.94277286529541,"1822":5.723405838012695,"1823":-8.130044937133789,"1824":1.8014901876449585,"1825":5.834517478942871,"1826":-0.701380729675293,"1827":2.816816806793213,"1828":0.03873676061630249,"1829":-14.019804954528809,"1830":6.848142623901367,"1831":9.994780540466309,"1832":2.993196487426758,"1833":-1.180604100227356,"1834":-6.497809886932373,"1835":-15.581470489501953,"1836":3.9976484775543213,"1837":-5.042091369628906,"1838":2.569150924682617,"1839":-3.0992112159729004,"1840":21.13766860961914,"1841":-5.373372554779053,"1842":-8.208684921264648,"1843":-12.540019035339355,"1844":-9.696702003479004,"1845":7.398110866546631,"1846":-5.204764366149902,"1847":14.652286529541016,"1848":-15.303728103637695,"1849":-12.904123306274414,"1850":9.35769271850586,"1851":-1.242269515991211,"1852":9.205678939819336,"1853":4.357938289642334,"1854":-1.572330117225647,"1855":3.9471733570098877,"1856":2.2270309925079346,"1857":-0.5069326162338257,"1858":-3.550311803817749,"1859":-9.58640193939209,"1860":-3.194636821746826,"1861":9.174342155456543,"1862":-10.087152481079102,"1863":-2.285938024520874,"1864":-0.043199777603149414,"1865":2.7658591270446777,"1866":11.99454402923584,"1867":-0.571322500705719,"1868":6.743365287780762,"1869":11.712080955505371,"1870":-3.042661666870117,"1871":-6.965231418609619,"1872":-7.016374588012695,"1873":6.948357105255127,"1874":-18.529415130615234,"1875":6.177704811096191,"1876":1.549206256866455,"1877":-2.5348217487335205,"1878":7.617795944213867,"1879":-3.679011583328247,"1880":-8.685063362121582,"1881":4.499215602874756,"1882":-0.8442372679710388,"1883":3.5094382762908936,"1884":-8.143108367919922,"1885":4.525192737579346,"1886":5.6254353523254395,"1887":5.423155307769775,"1888":-2.1773345470428467,"1889":2.0738461017608643,"1890":-5.109466552734375,"1891":2.2714152336120605,"1892":-13.485674858093262,"1893":10.827683448791504,"1894":10.381184577941895,"1895":14.948399543762207,"1896":5.341285705566406,"1897":-4.872554779052734,"1898":-5.706386566162109,"1899":-1.0682357549667358,"1900":11.444314956665039,"1901":4.596517086029053,"1902":6.191935062408447,"1903":9.799760818481445,"1904":-10.243892669677734,"1905":12.483076095581055,"1906":6.743697166442871,"1907":-2.6707804203033447,"1908":-6.798388481140137,"1909":-2.6006314754486084,"1910":-2.0264625549316406,"1911":2.9474503993988037,"1912":14.29736614227295,"1913":-3.253838062286377,"1914":3.516488790512085,"1915":-2.1114535331726074,"1916":6.722496032714844,"1917":6.42365837097168,"1918":-1.1102120876312256,"1919":-1.2095537185668945,"1920":5.605233192443848,"1921":-5.170449733734131,"1922":-6.141881465911865,"1923":14.270660400390625,"1924":-3.7750978469848633,"1925":-8.813027381896973,"1926":5.731133937835693,"1927":-10.615226745605469,"1928":-4.71797513961792,"1929":9.900407791137695,"1930":4.2122063636779785,"1931":3.4375178813934326,"1932":5.2944865226745605,"1933":-3.47320818901062,"1934":10.184782981872559,"1935":11.160277366638184,"1936":-0.5261460542678833,"1937":8.049087524414062,"1938":-5.563990116119385,"1939":-2.7474405765533447,"1940":6.403117656707764,"1941":4.343829154968262,"1942":-4.63092565536499,"1943":9.370301246643066,"1944":4.599479675292969,"1945":-10.436317443847656,"1946":4.113953113555908,"1947":-12.524813652038574,"1948":-5.108109951019287,"1949":8.427465438842773,"1950":-7.824229717254639,"1951":5.686389446258545,"1952":0.43322497606277466,"1953":-4.893993377685547,"1954":5.816086292266846,"1955":-9.249743461608887,"1956":7.982968807220459,"1957":-5.092108726501465,"1958":5.564328670501709,"1959":-5.64824914932251,"1960":-4.588025093078613,"1961":9.367341041564941,"1962":-6.932136058807373,"1963":-3.9311280250549316,"1964":-5.0561065673828125,"1965":5.324743747711182,"1966":-6.610172271728516,"1967":-2.3266963958740234,"1968":3.953964948654175,"1969":-12.89472770690918,"1970":13.488508224487305,"1971":-9.912882804870605,"1972":6.469630241394043,"1973":6.296599864959717,"1974":-5.74839448928833,"1975":-8.306571006774902,"1976":-1.1867767572402954,"1977":0.5558106899261475,"1978":-1.114405870437622,"1979":3.4941647052764893,"1980":-1.5499937534332275,"1981":-2.0264689922332764,"1982":3.240093946456909,"1983":-0.16966256499290466,"1984":-4.864770412445068,"1985":-0.7406565546989441,"1986":1.2214776277542114,"1987":-0.33404555916786194,"1988":-2.2979719638824463,"1989":-1.187967300415039,"1990":-0.5611029863357544,"1991":-0.4388980269432068,"1992":2.2544162273406982,"1993":-2.080320119857788,"1994":-1.7997106313705444,"1995":-3.1117265224456787,"1996":1.611465334892273,"1997":0.46565404534339905,"1998":2.50233793258667,"1999":5.755436420440674,"2000":0.12621372938156128,"2001":-3.78586483001709,"2002":-1.5251787900924683,"2003":2.1697511672973633,"2004":-1.1845479011535645,"2005":-0.9580898284912109,"2006":1.5033886432647705,"2007":0.953948438167572,"2008":-0.7329972982406616,"2009":-0.9927380681037903,"2010":2.1822288036346436,"2011":-2.626500129699707,"2012":-2.8137149810791016,"2013":0.2502375841140747,"2014":-0.45949414372444153,"2015":-0.8790064454078674,"2016":-4.4821577072143555,"2017":2.4330501556396484,"2018":-1.9018932580947876,"2019":0.817422091960907,"2020":2.0240111351013184,"2021":6.821763515472412,"2022":-3.338285446166992,"2023":-0.7368932366371155,"2024":2.178696870803833,"2025":-0.5744134783744812,"2026":-1.566971778869629,"2027":0.20185522735118866,"2028":2.094003677368164,"2029":0.9190486073493958,"2030":-0.7799133062362671,"2031":0.6144968271255493,"2032":1.6935880184173584,"2033":2.420562505722046,"2034":-3.029071807861328,"2035":7.1868462562561035,"2036":3.8761520385742188,"2037":-3.2647202014923096,"2038":-7.493073463439941,"2039":4.74037504196167,"2040":-0.22078803181648254,"2041":-5.654327869415283,"2042":3.4006617069244385,"2043":-2.368337869644165,"2044":-7.188217639923096,"2045":2.3763999938964844,"2046":0.07453323155641556,"2047":5.4873247146606445,"2048":-3.5328102111816406,"2049":-2.7795047760009766,"2050":-4.6012492179870605,"2051":0.23357807099819183,"2052":-5.824343204498291,"2053":4.035604000091553,"2054":-1.1022554636001587,"2055":-8.333878517150879,"2056":5.238720417022705,"2057":-0.49585410952568054,"2058":0.11216484010219574,"2059":-6.651069641113281,"2060":-0.9241092801094055,"2061":-6.44817590713501,"2062":-4.908205032348633,"2063":6.15975284576416,"2064":6.0410284996032715,"2065":-5.713555335998535,"2066":-0.7611452341079712,"2067":-9.00821590423584,"2068":8.115809440612793,"2069":-8.985116004943848,"2070":5.896438121795654,"2071":4.7551703453063965,"2072":-3.4492461681365967,"2073":-3.9851138591766357,"2074":-0.1136125698685646,"2075":6.268977165222168,"2076":-4.726032257080078,"2077":-3.1983084678649902,"2078":3.7088398933410645,"2079":-1.182951807975769,"2080":0.4073757231235504,"2081":-16.785444259643555,"2082":5.868615627288818,"2083":-13.780941009521484,"2084":-1.3237539529800415,"2085":11.390755653381348,"2086":-0.42303624749183655,"2087":4.485732078552246,"2088":-4.447412014007568,"2089":-17.130184173583984,"2090":5.7787017822265625,"2091":9.542737007141113,"2092":1.455357313156128,"2093":-0.4592479467391968,"2094":-11.86243724822998,"2095":-18.559743881225586,"2096":1.7736777067184448,"2097":8.650287628173828,"2098":-3.717092990875244,"2099":-0.48203498125076294,"2100":15.15738582611084,"2101":-11.26905345916748,"2102":-3.0480730533599854,"2103":-5.307596206665039,"2104":-8.504437446594238,"2105":0.8116103410720825,"2106":-1.3430728912353516,"2107":4.03720235824585,"2108":-13.957393646240234,"2109":-13.54996395111084,"2110":3.0529515743255615,"2111":-4.520111560821533,"2112":14.110160827636719,"2113":1.118922233581543,"2114":0.0213095061480999,"2115":-0.3434240221977234,"2116":0.9308149218559265,"2117":-2.293178081512451,"2118":2.42352032661438,"2119":-8.3693265914917,"2120":-2.1340653896331787,"2121":2.531116485595703,"2122":-1.6960266828536987,"2123":-3.2290902137756348,"2124":0.11146857589483261,"2125":-0.6261063814163208,"2126":1.9914697408676147,"2127":0.012213176116347313,"2128":0.31571516394615173,"2129":15.317571640014648,"2130":-1.1305938959121704,"2131":-13.705992698669434,"2132":9.077598571777344,"2133":5.759376049041748,"2134":-8.18323802947998,"2135":2.902395009994507,"2136":8.510161399841309,"2137":-8.357359886169434,"2138":-2.06441593170166,"2139":-6.381149768829346,"2140":-0.1534569263458252,"2141":4.117629051208496,"2142":-10.495160102844238,"2143":-7.339083194732666,"2144":4.47045373916626,"2145":-14.355862617492676,"2146":9.422636985778809,"2147":4.826754093170166,"2148":-10.493731498718262,"2149":-9.840423583984375,"2150":0.5205302834510803,"2151":6.866659641265869,"2152":-7.074037075042725,"2153":1.7491109371185303,"2154":-6.304539203643799,"2155":-2.7302768230438232,"2156":-1.4470897912979126,"2157":-0.4830322563648224,"2158":1.9856241941452026,"2159":-8.897016525268555,"2160":9.446550369262695,"2161":8.362580299377441,"2162":-6.45720911026001,"2163":5.535451889038086,"2164":-2.043987512588501,"2165":9.837756156921387,"2166":-10.341599464416504,"2167":9.419376373291016,"2168":3.8362975120544434,"2169":-12.1044340133667,"2170":2.9112908840179443,"2171":4.2782158851623535,"2172":-2.523650884628296,"2173":-10.791435241699219,"2174":9.432093620300293,"2175":9.70392894744873,"2176":-9.295845031738281,"2177":-7.262758731842041,"2178":6.470795154571533,"2179":14.165299415588379,"2180":-10.820013046264648,"2181":-7.456520080566406,"2182":9.300505638122559,"2183":0.5241426825523376,"2184":-7.154943943023682,"2185":-0.9338086247444153,"2186":0.20010367035865784,"2187":-3.4739830493927,"2188":-6.417481422424316,"2189":1.9585802555084229,"2190":2.771463394165039,"2191":1.1999167203903198,"2192":-2.2016685009002686,"2193":-8.366751670837402,"2194":14.38569450378418,"2195":3.119251012802124,"2196":-0.901614785194397,"2197":3.703301191329956,"2198":-6.444543838500977,"2199":-7.4475998878479,"2200":3.0437488555908203,"2201":0.763164758682251,"2202":0.4901314377784729,"2203":-4.043524742126465,"2204":11.314766883850098,"2205":-0.5919126272201538,"2206":0.5734394788742065,"2207":-8.454995155334473,"2208":-3.6039199829101562,"2209":1.9420883655548096,"2210":-2.789795398712158,"2211":6.845439910888672,"2212":-14.95360279083252,"2213":-5.752315044403076,"2214":6.719520568847656,"2215":0.7469344139099121,"2216":5.2563276290893555,"2217":1.4029725790023804,"2218":2.804568290710449,"2219":-2.4985203742980957,"2220":-1.1328305006027222,"2221":4.28073263168335,"2222":-2.8388428688049316,"2223":-7.059675216674805,"2224":-1.785709023475647,"2225":3.633848190307617,"2226":-11.299817085266113,"2227":-4.669201374053955,"2228":4.223485469818115,"2229":-3.2805395126342773,"2230":7.572462558746338,"2231":-2.391359567642212,"2232":0.8686203956604004,"2233":4.147993564605713,"2234":-4.5834269523620605,"2235":-4.734395980834961,"2236":-15.694987297058105,"2237":-5.115240573883057,"2238":6.863046646118164,"2239":-9.803901672363281,"2240":-17.238332748413086,"2241":6.783198356628418,"2242":9.444788932800293,"2243":0.7491723895072937,"2244":0.6971789598464966,"2245":-6.993218421936035,"2246":10.16334056854248,"2247":7.555576801300049,"2248":-10.13534164428711,"2249":4.9853315353393555,"2250":-5.192857265472412,"2251":-5.470044136047363,"2252":8.424798011779785,"2253":2.8942854404449463,"2254":-7.860247611999512,"2255":8.092903137207031,"2256":2.914318561553955,"2257":-5.121157646179199,"2258":5.643003463745117,"2259":-10.470193862915039,"2260":-5.216773986816406,"2261":17.04789924621582,"2262":-13.183398246765137,"2263":8.590456008911133,"2264":-5.370200157165527,"2265":-4.4906840324401855,"2266":12.438850402832031,"2267":-9.560124397277832,"2268":5.499136924743652,"2269":2.4503650665283203,"2270":4.984742164611816,"2271":-12.216123580932617,"2272":-5.847009181976318,"2273":5.218203067779541,"2274":-5.159480571746826,"2275":-8.487199783325195,"2276":3.182302951812744,"2277":7.835597515106201,"2278":-12.110200881958008,"2279":0.522462010383606,"2280":3.6305694580078125,"2281":2.7828798294067383,"2282":-2.6617274284362793,"2283":-4.221834182739258,"2284":5.294960975646973,"2285":1.2649630308151245,"2286":-9.829035758972168,"2287":-3.649576187133789,"2288":-3.642618417739868,"2289":2.623635768890381,"2290":-2.083956480026245,"2291":-4.058811664581299,"2292":-1.4876123666763306,"2293":6.66353702545166,"2294":6.56353235244751,"2295":1.0540363788604736,"2296":0.14841867983341217,"2297":2.257777690887451,"2298":4.766595840454102,"2299":6.215506553649902,"2300":-4.844621658325195,"2301":9.422589302062988,"2302":-2.3977365493774414,"2303":-5.604798793792725,"2304":6.633293151855469,"2305":10.98696231842041,"2306":-5.365912914276123,"2307":-4.185273170471191,"2308":5.890308380126953,"2309":-7.701882839202881,"2310":8.519604682922363,"2311":4.616753578186035,"2312":-1.0660514831542969,"2313":-8.692703247070312,"2314":-9.038240432739258,"2315":8.10966682434082,"2316":-3.160107374191284,"2317":-5.857996463775635,"2318":7.346407890319824,"2319":4.392322540283203,"2320":6.322420120239258,"2321":-9.016829490661621,"2322":6.482779026031494,"2323":-6.513427734375,"2324":-7.202942371368408,"2325":9.152156829833984,"2326":-8.878043174743652,"2327":-5.344191074371338,"2328":-6.779264450073242,"2329":6.021526336669922,"2330":-7.12103796005249,"2331":-5.025235652923584,"2332":5.472202301025391,"2333":3.9599032402038574,"2334":-6.362331867218018,"2335":-10.495514869689941,"2336":7.309274673461914,"2337":6.4861907958984375,"2338":-6.809232234954834,"2339":-6.430232524871826,"2340":10.114253044128418,"2341":-2.803499937057495,"2342":10.4619779586792,"2343":-7.378025531768799,"2344":12.953688621520996,"2345":6.905057907104492,"2346":-3.2021334171295166,"2347":7.011561870574951,"2348":9.650391578674316,"2349":-6.11671781539917,"2350":1.5075503587722778,"2351":6.958369731903076,"2352":2.574653387069702,"2353":-5.527195930480957,"2354":-4.145870685577393,"2355":-6.001298904418945,"2356":-1.6710342168807983,"2357":8.223662376403809,"2358":10.590740203857422,"2359":-4.638036251068115,"2360":6.194307804107666,"2361":-5.742279529571533,"2362":-8.982714653015137,"2363":-11.315136909484863,"2364":-7.348519802093506,"2365":6.516132831573486,"2366":1.9603825807571411,"2367":-1.5247387886047363,"2368":-0.26638099551200867,"2369":-5.160962104797363,"2370":-0.5404817461967468,"2371":-4.809889316558838,"2372":6.93870210647583,"2373":-6.623127460479736,"2374":-10.930160522460938,"2375":1.702986240386963,"2376":1.2273187637329102,"2377":-1.777327537536621,"2378":12.7623872756958,"2379":10.56450366973877,"2380":-4.304904460906982,"2381":-0.14650490880012512,"2382":1.6395211219787598,"2383":-4.2084059715271,"2384":-3.1100029945373535,"2385":-10.899742126464844,"2386":7.946741104125977,"2387":0.9869800806045532,"2388":-5.4985151290893555,"2389":0.6851417422294617,"2390":13.281193733215332,"2391":-5.790238857269287,"2392":-11.716901779174805,"2393":-0.28593647480010986,"2394":-9.350468635559082,"2395":5.064521789550781,"2396":-11.540221214294434,"2397":-1.4779126644134521,"2398":-0.2287755012512207,"2399":1.1934568881988525,"2400":-9.075138092041016,"2401":-3.034778356552124,"2402":-9.1483736038208,"2403":0.08456528931856155,"2404":-9.420339584350586,"2405":-7.260937690734863,"2406":-0.37714627385139465,"2407":-0.8692088723182678,"2408":-1.210976004600525,"2409":-3.110926866531372,"2410":0.1907510906457901,"2411":4.470973014831543,"2412":-0.039161380380392075,"2413":7.368794918060303,"2414":-4.519505023956299,"2415":1.2188202142715454,"2416":-2.3036279678344727,"2417":6.591782569885254,"2418":0.40724942088127136,"2419":-1.6584259271621704,"2420":8.451708793640137,"2421":-0.5022308230400085,"2422":-0.3896898627281189,"2423":-1.4002035856246948,"2424":-1.9587618112564087,"2425":3.844153881072998,"2426":-2.4609434604644775,"2427":4.08038854598999,"2428":1.5501182079315186,"2429":-3.3654580116271973,"2430":3.266400098800659,"2431":-8.31832218170166,"2432":10.634984016418457,"2433":-4.837469577789307,"2434":-0.5370062589645386,"2435":2.358264207839966,"2436":2.4414591789245605,"2437":3.784942865371704,"2438":1.806229829788208,"2439":11.597000122070312,"2440":-1.5778170824050903,"2441":-2.4731922149658203,"2442":0.5104587078094482,"2443":5.929357528686523,"2444":0.7015612721443176,"2445":-7.633556842803955,"2446":5.061748504638672,"2447":5.2686767578125,"2448":-0.3967214822769165,"2449":-1.7039461135864258,"2450":1.8843849897384644,"2451":3.390129327774048,"2452":2.5709590911865234,"2453":-8.479427337646484,"2454":7.310291290283203,"2455":5.931802272796631,"2456":0.050512440502643585,"2457":1.0334914922714233,"2458":-4.254507064819336,"2459":-6.876153945922852,"2460":1.2646945714950562,"2461":4.018974781036377,"2462":2.3162646293640137,"2463":4.272195339202881,"2464":5.629974842071533,"2465":-3.7261040210723877,"2466":0.6844241619110107,"2467":-0.022486809641122818,"2468":-5.065360069274902,"2469":-4.242850303649902,"2470":0.6160271167755127,"2471":-0.33069372177124023,"2472":-7.1447319984436035,"2473":-9.284625053405762,"2474":5.524506568908691,"2475":0.4754730761051178,"2476":3.735841751098633,"2477":-6.764321327209473,"2478":5.659499168395996,"2479":-3.983149766921997,"2480":-2.3898067474365234,"2481":3.2309629917144775,"2482":-1.0939823389053345,"2483":-0.7015103697776794,"2484":1.3816896677017212,"2485":1.3495864868164062,"2486":-0.2634393870830536,"2487":-8.00275993347168,"2488":5.268270969390869,"2489":-2.3114397525787354,"2490":0.9421858191490173,"2491":-2.432548761367798,"2492":2.0407347679138184,"2493":9.799421310424805,"2494":-4.502718925476074,"2495":-0.17223785817623138,"2496":1.238077163696289,"2497":11.383723258972168,"2498":-12.641807556152344,"2499":10.05978775024414,"2500":-9.684026718139648,"2501":0.6555293202400208,"2502":9.443570137023926,"2503":-0.5806959867477417,"2504":-10.831476211547852,"2505":0.4782258868217468,"2506":1.0171176195144653,"2507":-1.070684790611267,"2508":-11.234339714050293,"2509":-5.905848503112793,"2510":-0.7098612189292908,"2511":1.7314082384109497,"2512":4.8504204750061035,"2513":0.18886277079582214,"2514":-2.7063403129577637,"2515":-13.257220268249512,"2516":1.7852590084075928,"2517":-1.3828221559524536,"2518":0.5139821767807007,"2519":10.8932466506958,"2520":0.9615339636802673,"2521":-11.597088813781738,"2522":-4.718293190002441,"2523":4.60267448425293,"2524":-1.856808066368103,"2525":-0.045079126954078674,"2526":3.999711751937866,"2527":11.88595199584961,"2528":1.1324394941329956,"2529":-1.713130235671997,"2530":11.995500564575195,"2531":-2.4825210571289062,"2532":-13.492521286010742,"2533":-1.248907208442688,"2534":-4.333276748657227,"2535":-2.5724687576293945,"2536":-1.732293725013733,"2537":14.661646842956543,"2538":-8.377531051635742,"2539":-1.3101074695587158,"2540":11.504880905151367,"2541":13.011514663696289,"2542":-0.47083985805511475,"2543":6.900323390960693,"2544":2.486171245574951,"2545":-10.566288948059082,"2546":-1.9424289464950562,"2547":-1.1406680345535278,"2548":10.644368171691895,"2549":10.632596015930176,"2550":-3.884084701538086,"2551":3.238884210586548,"2552":9.009063720703125,"2553":-7.186190605163574,"2554":-3.683833599090576,"2555":-1.4607871770858765,"2556":-2.5554652214050293,"2557":5.084646701812744,"2558":-8.25810432434082,"2559":-6.927135467529297,"2560":1.983374834060669,"2561":-8.350751876831055,"2562":7.822518348693848,"2563":10.842496871948242,"2564":-8.78939151763916,"2565":-11.444376945495605,"2566":-1.9583899974822998,"2567":12.303597450256348,"2568":-11.265233039855957,"2569":8.21199893951416,"2570":-4.030002593994141,"2571":-1.4750231504440308,"2572":8.418275833129883,"2573":-10.40401840209961,"2574":-3.8524110317230225,"2575":-10.175151824951172,"2576":-0.9940816760063171,"2577":11.510151863098145,"2578":-9.351006507873535,"2579":2.7228662967681885,"2580":-4.738525390625,"2581":3.6414194107055664,"2582":-6.185069561004639,"2583":6.705955505371094,"2584":8.112317085266113,"2585":-13.489439964294434,"2586":6.8979668617248535,"2587":7.095254421234131,"2588":4.787229537963867,"2589":-11.64356517791748,"2590":12.10214614868164,"2591":14.044346809387207,"2592":-4.927417755126953,"2593":4.358998775482178,"2594":-1.9414398670196533,"2595":3.975545644760132,"2596":-4.875437259674072,"2597":-11.232537269592285,"2598":4.888637542724609,"2599":9.716418266296387,"2600":0.052709367126226425,"2601":0.9398635029792786,"2602":-1.5705543756484985,"2603":-0.017464477568864822,"2604":-0.08222530037164688,"2605":0.26951682567596436,"2606":0.6584219932556152,"2607":-0.5859153270721436,"2608":-1.2022302150726318,"2609":-0.3281315863132477,"2610":-0.3919205963611603,"2611":0.008613594807684422,"2612":-1.389935851097107,"2613":-1.109960913658142,"2614":0.5662937164306641,"2615":0.19493667781352997,"2616":0.340558260679245,"2617":-0.04253387451171875,"2618":1.0641155242919922,"2619":-3.6522250175476074,"2620":-0.11473023891448975,"2621":-0.21726222336292267,"2622":1.3427424430847168,"2623":2.137392044067383,"2624":-0.38565948605537415,"2625":-0.7631951570510864,"2626":0.6147392392158508,"2627":-1.4250725507736206,"2628":-0.4535682201385498,"2629":-0.22079896926879883,"2630":1.1270447969436646,"2631":0.9363833069801331,"2632":0.6474888920783997,"2633":0.39477917551994324,"2634":1.3447023630142212,"2635":-1.5618650913238525,"2636":-0.4261329174041748,"2637":-1.0967378616333008,"2638":1.2725629806518555,"2639":0.42862290143966675,"2640":-1.9363003969192505,"2641":1.0528345108032227,"2642":1.221331238746643,"2643":0.3820195198059082,"2644":0.20303113758563995,"2645":0.921839714050293,"2646":-0.9157693386077881,"2647":-0.8112048506736755,"2648":0.4542527198791504,"2649":-1.2111952304840088,"2650":0.7049746513366699,"2651":-0.7462717294692993,"2652":0.5681456923484802,"2653":0.35928836464881897,"2654":-0.1424546092748642,"2655":-1.6280419826507568,"2656":0.45946404337882996,"2657":0.976377546787262,"2658":-0.7507200837135315,"2659":-0.12671367824077606,"2660":-0.48051315546035767,"2661":0.5417006611824036,"2662":-1.0579584836959839,"2663":-0.1310318559408188,"2664":-0.3158242106437683,"2665":0.6021649837493896,"2666":-0.512061357498169,"2667":-0.17958858609199524,"2668":0.21261566877365112,"2669":-0.022985471412539482,"2670":-0.45214301347732544,"2671":-0.9937044382095337,"2672":1.1389243602752686,"2673":-0.697597324848175,"2674":-0.6552726626396179,"2675":-2.086832284927368,"2676":-1.0626657009124756,"2677":1.0567295551300049,"2678":-0.3228287100791931,"2679":-0.08582845330238342,"2680":-0.8915651440620422,"2681":0.5600180625915527,"2682":0.37565556168556213,"2683":0.2301211655139923,"2684":0.9856513738632202,"2685":0.2974278926849365,"2686":-0.08618232607841492,"2687":-0.2864329218864441,"2688":-0.037548743188381195,"2689":-0.40699395537376404,"2690":0.17732645571231842,"2691":-0.8189566731452942,"2692":-1.2014740705490112,"2693":0.3988744020462036,"2694":-0.051035333424806595,"2695":1.1939135789871216,"2696":-0.13710278272628784,"2697":0.046161990612745285,"2698":-0.24824915826320648,"2699":-0.5779790878295898,"2700":-0.41584640741348267,"2701":-0.9721352458000183,"2702":0.4603404700756073,"2703":-1.3565517663955688,"2704":-0.07725754380226135,"2705":-0.04647982493042946,"2706":-0.05183570832014084,"2707":0.007558498997241259,"2708":0.025441141799092293,"2709":0.051831264048814774,"2710":-0.061795223504304886,"2711":0.057130955159664154,"2712":-0.03818989917635918,"2713":0.0116959810256958,"2714":-0.013404961675405502,"2715":-0.06426063925027847,"2716":0.0660531148314476,"2717":0.0710686594247818,"2718":0.01710066758096218,"2719":-0.06543231010437012,"2720":-0.014637374319136143,"2721":0.054858893156051636,"2722":-0.04220250993967056,"2723":0.061954665929079056,"2724":-0.017145389690995216,"2725":0.04562065005302429,"2726":-0.041620347648859024,"2727":0.055608414113521576,"2728":-0.0031763804145157337,"2729":-0.03692011535167694,"2730":0.061604663729667664,"2731":-0.0027204665821045637,"2732":-0.021139152348041534,"2733":-0.07692869752645493,"2734":-0.008667198941111565,"2735":0.0032206992618739605,"2736":0.033157430589199066,"2737":0.057420141994953156,"2738":0.07215805351734161,"2739":-0.02722940780222416,"2740":0.0631176084280014,"2741":0.032807864248752594,"2742":-0.07902934402227402,"2743":-0.07861116528511047,"2744":-0.03263581544160843,"2745":-0.0408065989613533,"2746":-0.07141942530870438,"2747":0.03524085879325867,"2748":0.0261191688477993,"2749":0.02567806839942932,"2750":0.05120103433728218,"2751":0.0353524424135685,"2752":0.007795882411301136,"2753":-0.041148241609334946,"2754":0.05219704657793045,"2755":-0.009599074721336365}},"hiddenLayers":[{"inputMatrix":{"rows":20,"columns":52,"weights":{"0":-2.0476126670837402,"1":0.195267915725708,"2":-2.330747127532959,"3":-0.29901280999183655,"4":-0.8178858160972595,"5":0.3727918267250061,"6":1.545617938041687,"7":0.34449541568756104,"8":-2.0453526973724365,"9":-1.014437198638916,"10":-0.5167073011398315,"11":1.2192085981369019,"12":-2.9310531616210938,"13":-0.27234065532684326,"14":0.2223854511976242,"15":-0.5018229484558105,"16":-0.08839131146669388,"17":-0.14633098244667053,"18":-0.947333574295044,"19":-0.9875883460044861,"20":-0.0798908919095993,"21":-0.3157302439212799,"22":-0.007093184627592564,"23":1.1544110774993896,"24":-1.6348987817764282,"25":0.5320469737052917,"26":-1.1819566488265991,"27":-0.23239818215370178,"28":0.6402024030685425,"29":-0.26940515637397766,"30":1.7941005229949951,"31":-0.0962587296962738,"32":0.42691436409950256,"33":-0.14126139879226685,"34":1.3476755619049072,"35":-0.16771911084651947,"36":-0.8529030680656433,"37":-0.8001572489738464,"38":-0.11801733821630478,"39":-1.9096078872680664,"40":-0.12483566254377365,"41":-0.9269525408744812,"42":0.22979190945625305,"43":0.247837096452713,"44":1.2318669557571411,"45":1.4810895919799805,"46":-1.0703576803207397,"47":0.6985786557197571,"48":1.0054702758789062,"49":-0.10349170863628387,"50":-0.7384961843490601,"51":0.2153656780719757,"52":-0.6497111916542053,"53":0.27353331446647644,"54":-1.3755637407302856,"55":-0.7018704414367676,"56":-0.8408313393592834,"57":-0.013906978070735931,"58":1.436319351196289,"59":-0.15369251370429993,"60":-0.4386594891548157,"61":0.013141307979822159,"62":-0.7187243700027466,"63":-0.11049370467662811,"64":-2.6533734798431396,"65":0.39337003231048584,"66":0.1186797171831131,"67":-0.12440606951713562,"68":0.5337210893630981,"69":-0.1964544802904129,"70":-0.4003482162952423,"71":-1.3243452310562134,"72":0.5592489242553711,"73":-0.06947329640388489,"74":1.2882964611053467,"75":-0.25415048003196716,"76":-0.09679078310728073,"77":0.35637199878692627,"78":-0.5684735178947449,"79":1.2113982439041138,"80":-0.47254371643066406,"81":0.2807377576828003,"82":1.132529616355896,"83":0.23213952779769897,"84":0.09288535267114639,"85":0.1668449491262436,"86":0.6304233074188232,"87":-0.22432787716388702,"88":-2.5388877391815186,"89":0.0523492768406868,"90":-1.1291370391845703,"91":-0.52155601978302,"92":-0.8181287050247192,"93":1.3282476663589478,"94":-1.6603155136108398,"95":0.1627255529165268,"96":1.3407989740371704,"97":-0.16571590304374695,"98":-1.252335786819458,"99":-0.30806073546409607,"100":0.625937283039093,"101":-0.4473302662372589,"102":-1.108560562133789,"103":-0.34981533885002136,"104":0.8610113859176636,"105":0.42528876662254333,"106":0.2405976504087448,"107":0.23701132833957672,"108":1.2087640762329102,"109":0.7251760363578796,"110":-0.8471957445144653,"111":0.3833349049091339,"112":-0.5012825131416321,"113":-0.37167981266975403,"114":-1.144860029220581,"115":0.17026996612548828,"116":-0.14742615818977356,"117":-2.717899799346924,"118":-0.22614887356758118,"119":-0.3553537428379059,"120":-0.844158947467804,"121":0.0835951566696167,"122":0.5846883654594421,"123":-1.1415225267410278,"124":0.5646020770072937,"125":-0.29217997193336487,"126":-0.8088440299034119,"127":0.03621482849121094,"128":-0.9027115106582642,"129":-0.22853729128837585,"130":1.1915348768234253,"131":-1.6611686944961548,"132":0.044732511043548584,"133":-0.07835282385349274,"134":-0.25989603996276855,"135":-0.28634634613990784,"136":0.8857557773590088,"137":0.07430736720561981,"138":0.02658289298415184,"139":0.23880772292613983,"140":0.565962553024292,"141":-1.048974871635437,"142":2.195960760116577,"143":0.018919246271252632,"144":0.37405136227607727,"145":-0.5683526396751404,"146":2.177743673324585,"147":1.168495535850525,"148":-0.11870399117469788,"149":0.393120139837265,"150":0.16956104338169098,"151":1.431167721748352,"152":-1.3101946115493774,"153":-0.7716608047485352,"154":2.313687562942505,"155":-0.033816859126091,"156":0.3587944209575653,"157":-0.6606218218803406,"158":1.1965254545211792,"159":-0.6890437602996826,"160":0.9277932047843933,"161":1.4550023078918457,"162":0.08064403384923935,"163":0.5879163146018982,"164":0.4740324318408966,"165":-0.7686700224876404,"166":-0.4309879243373871,"167":0.926654577255249,"168":0.028827602043747902,"169":-0.3480224609375,"170":-0.010160055011510849,"171":-0.9733223915100098,"172":0.4542815089225769,"173":1.1705299615859985,"174":-0.26148509979248047,"175":0.24448397755622864,"176":-0.47615212202072144,"177":-0.9503124952316284,"178":-0.525342583656311,"179":-1.2925034761428833,"180":-0.470623642206192,"181":-0.6016660332679749,"182":-0.004173532128334045,"183":0.13553771376609802,"184":-0.6318155527114868,"185":-1.1918045282363892,"186":-0.12701386213302612,"187":-0.19334349036216736,"188":1.0822182893753052,"189":-0.4348304569721222,"190":0.1972830593585968,"191":-0.17699117958545685,"192":0.1411239504814148,"193":-0.7137879729270935,"194":0.22277966141700745,"195":-0.31072649359703064,"196":0.3897154927253723,"197":0.6218354105949402,"198":0.10802461951971054,"199":0.942561686038971,"200":0.2997952401638031,"201":-0.4014437198638916,"202":0.7443087697029114,"203":0.35424014925956726,"204":-0.0637090653181076,"205":0.8265036940574646,"206":0.590450644493103,"207":-1.2858444452285767,"208":0.007041619159281254,"209":1.7815202474594116,"210":-0.7548417448997498,"211":0.0780959501862526,"212":0.42418766021728516,"213":0.21985740959644318,"214":-0.6533443927764893,"215":-0.8227764368057251,"216":-1.1964318752288818,"217":0.6779451966285706,"218":-0.5625914931297302,"219":0.24305829405784607,"220":0.49141886830329895,"221":-0.6784709692001343,"222":0.1432075947523117,"223":1.169255018234253,"224":0.4874732494354248,"225":-0.661421537399292,"226":-0.033838845789432526,"227":-0.6916291117668152,"228":-0.2948914170265198,"229":0.7065616250038147,"230":-1.998186707496643,"231":-0.8241254091262817,"232":-0.46233054995536804,"233":-1.2644860744476318,"234":0.2969443202018738,"235":0.9806930422782898,"236":-0.11797380447387695,"237":0.2987794280052185,"238":-0.525482714176178,"239":1.7200285196304321,"240":0.14489418268203735,"241":1.003373384475708,"242":-0.25560569763183594,"243":-0.4814654290676117,"244":0.23850589990615845,"245":0.07479719072580338,"246":0.9203044772148132,"247":-0.21549783647060394,"248":-0.3868124485015869,"249":1.3227964639663696,"250":-0.5748092532157898,"251":0.2885543704032898,"252":-0.807584285736084,"253":1.288698434829712,"254":-0.2472977191209793,"255":0.8597878217697144,"256":-1.3455125093460083,"257":-0.31062012910842896,"258":1.4665745496749878,"259":0.8846973776817322,"260":0.294742226600647,"261":-0.6469075679779053,"262":0.9164460897445679,"263":-0.30269140005111694,"264":0.42701849341392517,"265":0.7484378814697266,"266":-1.2338064908981323,"267":1.145403504371643,"268":0.3431478440761566,"269":-1.2697319984436035,"270":-0.5993617177009583,"271":0.8560368418693542,"272":0.7897060513496399,"273":-0.8696288466453552,"274":-0.3139388859272003,"275":-0.7806826829910278,"276":-1.6204156875610352,"277":0.5902354717254639,"278":0.5901609063148499,"279":1.067610740661621,"280":0.4628421366214752,"281":-0.5515507459640503,"282":-1.5723707675933838,"283":0.08353569358587265,"284":-1.1515547037124634,"285":0.4466637969017029,"286":0.8625421524047852,"287":-1.039757251739502,"288":0.1589292734861374,"289":-0.8306204080581665,"290":-1.1509066820144653,"291":-0.8912106156349182,"292":0.8096210956573486,"293":-0.7412135004997253,"294":-1.3523168563842773,"295":1.5446531772613525,"296":0.8564727902412415,"297":-0.7861906886100769,"298":1.2084569931030273,"299":0.23247608542442322,"300":1.0020802021026611,"301":-1.2001959085464478,"302":1.0187739133834839,"303":0.03945304825901985,"304":-0.8769538998603821,"305":0.0813736543059349,"306":0.4469295144081116,"307":0.43374109268188477,"308":-1.3102985620498657,"309":0.62389075756073,"310":1.210539698600769,"311":-0.3048146069049835,"312":-0.09558289498090744,"313":-1.6447422504425049,"314":0.7570115923881531,"315":-0.6731308698654175,"316":-0.5597675442695618,"317":-0.7025117874145508,"318":0.22109736502170563,"319":0.6583638191223145,"320":0.9836602807044983,"321":-1.675851821899414,"322":0.9348128437995911,"323":0.34576302766799927,"324":-0.32063454389572144,"325":0.37466952204704285,"326":-0.17286324501037598,"327":-1.4014006853103638,"328":0.42283540964126587,"329":0.33236807584762573,"330":0.29402023553848267,"331":-0.28157928586006165,"332":1.604800820350647,"333":-0.41792377829551697,"334":0.33708032965660095,"335":-0.47125813364982605,"336":0.3263072371482849,"337":1.7216408252716064,"338":0.1446453332901001,"339":0.6102980971336365,"340":-1.7072296142578125,"341":-0.5457873940467834,"342":1.4535058736801147,"343":-0.7441293001174927,"344":1.0239553451538086,"345":-0.6910895109176636,"346":1.1074119806289673,"347":-1.0456455945968628,"348":-0.2496793419122696,"349":-0.5558344721794128,"350":0.028543144464492798,"351":0.49265390634536743,"352":-2.3695528507232666,"353":0.375358909368515,"354":0.0650826096534729,"355":-0.4477144777774811,"356":0.7944039702415466,"357":-1.8095042705535889,"358":0.29820701479911804,"359":-2.130535364151001,"360":0.9555273652076721,"361":0.6336597800254822,"362":-0.9690607190132141,"363":-1.5273147821426392,"364":0.5134333372116089,"365":-0.8287066221237183,"366":0.9597892761230469,"367":-1.5738774538040161,"368":0.5499444007873535,"369":0.9166389107704163,"370":-0.32315972447395325,"371":1.7923452854156494,"372":0.6026976704597473,"373":-0.804518461227417,"374":-0.02812415547668934,"375":0.5796327590942383,"376":-0.11123096942901611,"377":-0.962635338306427,"378":0.5044063329696655,"379":-0.5888128876686096,"380":-0.5947056412696838,"381":1.197640299797058,"382":-0.3303241729736328,"383":-0.8305201530456543,"384":0.8163889050483704,"385":-2.2286570072174072,"386":-0.1951804757118225,"387":-0.21832521259784698,"388":-0.4502953886985779,"389":2.1723854541778564,"390":-0.2021685093641281,"391":-0.8466973900794983,"392":-1.0380420684814453,"393":-0.22014306485652924,"394":0.15447933971881866,"395":-2.1638734340667725,"396":1.5527360439300537,"397":-2.6259450912475586,"398":0.02299397438764572,"399":0.20241136848926544,"400":0.20075766742229462,"401":-0.8252882957458496,"402":-0.22990916669368744,"403":0.25928497314453125,"404":-1.434912919998169,"405":-0.2562921345233917,"406":1.2170964479446411,"407":0.29198938608169556,"408":-0.14660382270812988,"409":-1.5829007625579834,"410":0.12830959260463715,"411":-0.22283592820167542,"412":-0.01321793906390667,"413":0.37021249532699585,"414":-0.18359804153442383,"415":-1.5251435041427612,"416":0.21048803627490997,"417":2.0002453327178955,"418":0.07524815201759338,"419":0.22591440379619598,"420":0.2974206805229187,"421":-0.962166965007782,"422":0.7133488655090332,"423":-1.0803642272949219,"424":-0.08461347222328186,"425":1.497768759727478,"426":-0.18760956823825836,"427":-0.058103665709495544,"428":-1.1042516231536865,"429":-0.7900833487510681,"430":0.6249076724052429,"431":0.9902331829071045,"432":0.11071834713220596,"433":-1.7999861240386963,"434":-0.20627276599407196,"435":-0.43839266896247864,"436":-1.394532322883606,"437":0.9304760098457336,"438":1.1654126644134521,"439":0.1277196854352951,"440":-0.0006784502184018493,"441":-0.7093552350997925,"442":-0.4087974727153778,"443":-0.08724753558635712,"444":-0.3331543803215027,"445":1.054367184638977,"446":0.1373230516910553,"447":2.8630945682525635,"448":-0.7927257418632507,"449":2.086129903793335,"450":-0.0009551152470521629,"451":0.13766147196292877,"452":-0.5982180833816528,"453":-0.5678616166114807,"454":0.42202556133270264,"455":-0.16468937695026398,"456":-0.2016824632883072,"457":0.1134963259100914,"458":0.2697727084159851,"459":2.0263712406158447,"460":0.3688657581806183,"461":0.9148880243301392,"462":-0.5344293713569641,"463":0.4282391369342804,"464":-0.016678255051374435,"465":-2.1173083782196045,"466":-0.15270838141441345,"467":1.2036101818084717,"468":0.13342171907424927,"469":2.0730433464050293,"470":0.15491685271263123,"471":0.17812766134738922,"472":-0.1546526849269867,"473":-1.530380368232727,"474":0.35189566016197205,"475":-2.518378257751465,"476":-0.4871998131275177,"477":1.7435251474380493,"478":0.32257604598999023,"479":-2.4386887550354004,"480":0.12515953183174133,"481":-0.43980157375335693,"482":0.5371055006980896,"483":2.084134340286255,"484":0.6898448467254639,"485":-2.784982681274414,"486":-0.07876662909984589,"487":-0.6149237155914307,"488":-0.17424720525741577,"489":1.6003015041351318,"490":0.1079479306936264,"491":-0.7766166925430298,"492":1.2494217157363892,"493":-1.7749804258346558,"494":-0.42033541202545166,"495":0.5932446122169495,"496":-1.6314685344696045,"497":1.923755168914795,"498":0.25881317257881165,"499":1.999650001525879,"500":-0.26312077045440674,"501":2.314145565032959,"502":-0.011826577596366405,"503":-0.5638964772224426,"504":-0.37465202808380127,"505":-0.9595757722854614,"506":0.8987081050872803,"507":-0.5143276453018188,"508":-0.17233340442180634,"509":0.7047282457351685,"510":-0.2626522183418274,"511":2.1073482036590576,"512":-0.019322657957673073,"513":1.081160068511963,"514":-0.16396380960941315,"515":0.2356531023979187,"516":0.0072924415580928326,"517":-2.195913553237915,"518":-0.06733708828687668,"519":1.4291988611221313,"520":-0.04308246076107025,"521":1.1170477867126465,"522":-0.40927502512931824,"523":3.0142290592193604,"524":-0.05114774778485298,"525":-1.619003176689148,"526":-0.27135804295539856,"527":-0.7913366556167603,"528":-0.30174124240875244,"529":-0.12373916804790497,"530":-1.2271312475204468,"531":-0.7161470651626587,"532":-0.06952527910470963,"533":0.4403042793273926,"534":2.195892810821533,"535":0.8002966046333313,"536":-0.29675930738449097,"537":-1.2646586894989014,"538":0.021748509258031845,"539":2.0796756744384766,"540":-2.352477550506592,"541":1.5665991306304932,"542":0.14194750785827637,"543":0.7417966723442078,"544":0.6731113791465759,"545":-2.556032657623291,"546":-0.4865855276584625,"547":-0.17027832567691803,"548":1.51357102394104,"549":1.1064585447311401,"550":-0.3075667917728424,"551":1.5535414218902588,"552":-1.1471575498580933,"553":1.624670386314392,"554":-0.7533705830574036,"555":0.43159422278404236,"556":1.1126594543457031,"557":-1.237276315689087,"558":0.058843765407800674,"559":-0.8209875226020813,"560":1.4967907667160034,"561":-1.0801221132278442,"562":0.5419135689735413,"563":1.1699068546295166,"564":-0.54302978515625,"565":0.6343201994895935,"566":0.05740329250693321,"567":-0.007076856214553118,"568":-0.05175493657588959,"569":-0.9736090302467346,"570":0.38657936453819275,"571":0.7385557889938354,"572":1.0173860788345337,"573":-1.127153754234314,"574":1.0251797437667847,"575":-0.7742955088615417,"576":0.08800052851438522,"577":0.6194047927856445,"578":-0.38527941703796387,"579":0.5920416116714478,"580":1.8149346113204956,"581":0.2884220778942108,"582":0.7101579904556274,"583":0.13065731525421143,"584":0.6542150378227234,"585":2.1653857231140137,"586":-0.9948737025260925,"587":-0.22548916935920715,"588":-0.0735117495059967,"589":0.16667945683002472,"590":0.016219113022089005,"591":0.34546276926994324,"592":1.090652585029602,"593":-1.1505473852157593,"594":0.18491970002651215,"595":-0.9327832460403442,"596":0.08646010607481003,"597":1.2540940046310425,"598":0.31123194098472595,"599":0.0007002224447205663,"600":0.001244472456164658,"601":0.09481769800186157,"602":-0.7143371105194092,"603":-1.8280516862869263,"604":0.37028536200523376,"605":-1.008215069770813,"606":-0.6997178792953491,"607":0.2766781747341156,"608":0.13085965812206268,"609":1.8480472564697266,"610":-0.7705516815185547,"611":0.6159564256668091,"612":-0.36464235186576843,"613":-0.10678143054246902,"614":-0.5811161994934082,"615":-0.8138996362686157,"616":-0.10552646219730377,"617":-2.06480073928833,"618":0.3015439510345459,"619":-1.610306978225708,"620":0.07995368540287018,"621":0.5734984874725342,"622":0.003147753654047847,"623":-1.2242603302001953,"624":0.9090704321861267,"625":-0.1957736313343048,"626":1.2700128555297852,"627":0.2800367474555969,"628":1.321115255355835,"629":0.05182803422212601,"630":-0.9210782647132874,"631":-0.008708015084266663,"632":1.5089741945266724,"633":0.07706719636917114,"634":0.09966481477022171,"635":0.05031484737992287,"636":2.003077507019043,"637":-0.5141561627388,"638":0.3092593550682068,"639":0.08475152403116226,"640":-0.5993303656578064,"641":0.387578547000885,"642":1.4583728313446045,"643":1.5898029804229736,"644":-0.6065168380737305,"645":0.360803484916687,"646":-1.0667670965194702,"647":-0.1609513759613037,"648":0.6090229749679565,"649":-0.3045189082622528,"650":0.6865601539611816,"651":-1.7091655731201172,"652":0.534726619720459,"653":-0.18859641253948212,"654":-0.1427287459373474,"655":-0.2409040778875351,"656":-0.24079346656799316,"657":-0.053038980811834335,"658":-0.18961787223815918,"659":-0.05194083973765373,"660":1.486472725868225,"661":-0.424042284488678,"662":1.3036004304885864,"663":0.44437742233276367,"664":0.6568480730056763,"665":-0.7562000155448914,"666":1.4625210762023926,"667":-0.1466929316520691,"668":-1.4021368026733398,"669":-1.0376588106155396,"670":0.8666708469390869,"671":0.27641215920448303,"672":-0.2549084722995758,"673":0.38021278381347656,"674":1.3784024715423584,"675":0.015406684949994087,"676":-1.6134287118911743,"677":0.33876344561576843,"678":-1.8394471406936646,"679":-0.09648209810256958,"680":-1.2845662832260132,"681":-0.03558487445116043,"682":1.0565165281295776,"683":-0.21441403031349182,"684":0.40275701880455017,"685":-0.10173030197620392,"686":0.08428607136011124,"687":0.5967587232589722,"688":-2.2049007415771484,"689":1.7617636919021606,"690":0.2673027515411377,"691":0.10257991403341293,"692":-0.03522127866744995,"693":0.48359960317611694,"694":0.8215060830116272,"695":-0.08665356040000916,"696":-0.18977154791355133,"697":-0.36447039246559143,"698":2.342299699783325,"699":0.47577956318855286,"700":0.49260127544403076,"701":0.8623145818710327,"702":-0.25124040246009827,"703":-0.41050076484680176,"704":0.7881426215171814,"705":0.10021159797906876,"706":0.24047036468982697,"707":-0.24197709560394287,"708":-0.35356467962265015,"709":-0.37902766466140747,"710":0.4686160683631897,"711":-0.06453730911016464,"712":-0.8316628932952881,"713":3.3002521991729736,"714":-2.3273751735687256,"715":1.3884774446487427,"716":0.18129129707813263,"717":-0.259228378534317,"718":-0.2443033754825592,"719":-0.13469339907169342,"720":0.10729371011257172,"721":0.16764475405216217,"722":-0.6629416346549988,"723":-1.2072616815567017,"724":0.7987661361694336,"725":-0.0073576015420258045,"726":-0.32857534289360046,"727":0.2786105275154114,"728":-1.304877519607544,"729":-0.09222036600112915,"730":-0.9102529883384705,"731":0.0640459656715393,"732":-1.1769521236419678,"733":-0.21467772126197815,"734":1.927827000617981,"735":0.21063700318336487,"736":-0.7756724953651428,"737":-0.3359554708003998,"738":0.3633742034435272,"739":0.12267150729894638,"740":-1.1660913228988647,"741":0.15932738780975342,"742":-0.270373672246933,"743":-0.4299394190311432,"744":1.050270676612854,"745":0.058727048337459564,"746":-1.0047351121902466,"747":-1.7838205099105835,"748":0.5689582824707031,"749":-0.046770211309194565,"750":0.430146723985672,"751":0.2911280691623688,"752":-0.3874780237674713,"753":0.9377844333648682,"754":-1.62606680393219,"755":1.2837793827056885,"756":-0.11298507452011108,"757":-0.17511840164661407,"758":1.4490561485290527,"759":-0.5695318579673767,"760":0.21279074251651764,"761":-0.4235835075378418,"762":1.0573484897613525,"763":-1.4663618803024292,"764":-1.829254150390625,"765":1.0307074785232544,"766":-1.0027939081192017,"767":-1.304356336593628,"768":-2.0772697925567627,"769":0.33301886916160583,"770":-1.0363706350326538,"771":-0.39734217524528503,"772":1.5007420778274536,"773":0.36728614568710327,"774":-0.10733648389577866,"775":-0.33890795707702637,"776":1.5333484411239624,"777":0.19587668776512146,"778":-1.384472131729126,"779":-0.008822603151202202,"780":1.1892660856246948,"781":1.1162896156311035,"782":1.0942848920822144,"783":-0.7371606230735779,"784":0.38363033533096313,"785":-0.18986718356609344,"786":0.21539205312728882,"787":-0.21269439160823822,"788":0.054674264043569565,"789":0.88182532787323,"790":0.7755163908004761,"791":-0.15176865458488464,"792":0.5026841759681702,"793":0.7873727083206177,"794":0.2420688271522522,"795":0.8376528024673462,"796":1.0979622602462769,"797":-0.419819712638855,"798":-0.535124659538269,"799":-1.260640025138855,"800":0.0618259571492672,"801":-0.3309924900531769,"802":1.0496103763580322,"803":0.17924615740776062,"804":1.3034487962722778,"805":-0.6259098052978516,"806":-0.5809382200241089,"807":0.3808162212371826,"808":-1.529339075088501,"809":0.14119809865951538,"810":-0.0031528405379503965,"811":0.9752187728881836,"812":0.09851129353046417,"813":-0.6179096102714539,"814":0.32253435254096985,"815":-1.210046410560608,"816":-0.4159388542175293,"817":0.5402453541755676,"818":0.011235488578677177,"819":0.6536110639572144,"820":-1.8435651063919067,"821":1.4219496250152588,"822":0.07486732304096222,"823":0.2916015386581421,"824":-0.13653366267681122,"825":-0.05090143531560898,"826":-0.5247119665145874,"827":-1.1496118307113647,"828":0.5222457647323608,"829":-0.6342161297798157,"830":0.07171428203582764,"831":-0.19122526049613953,"832":1.2503459453582764,"833":-0.24945023655891418,"834":2.160571575164795,"835":-0.4786887764930725,"836":0.21590334177017212,"837":-0.10262927412986755,"838":-1.5556840896606445,"839":-0.11440268903970718,"840":2.2636468410491943,"841":0.4312012195587158,"842":0.49057668447494507,"843":-0.48784661293029785,"844":2.7127621173858643,"845":-1.1288350820541382,"846":-0.021426863968372345,"847":0.2281332165002823,"848":-0.26293107867240906,"849":0.05614066123962402,"850":0.6587890982627869,"851":0.27501964569091797,"852":0.508569061756134,"853":-0.7116906642913818,"854":-0.05393026024103165,"855":-0.673046350479126,"856":0.7838819622993469,"857":-0.031392768025398254,"858":1.8102798461914062,"859":-0.29090213775634766,"860":-0.39403921365737915,"861":0.4249938726425171,"862":-1.1197153329849243,"863":-0.9704270362854004,"864":0.24382781982421875,"865":-0.6385684013366699,"866":-1.5456937551498413,"867":-0.10788621008396149,"868":1.4237650632858276,"869":0.08912277221679688,"870":0.9237186312675476,"871":1.3905075788497925,"872":-0.543900191783905,"873":0.03774656355381012,"874":-0.10669262707233429,"875":0.18461371958255768,"876":-1.7169194221496582,"877":-1.9317917823791504,"878":0.013891822658479214,"879":0.25406748056411743,"880":-1.3257734775543213,"881":-0.435237854719162,"882":1.5874531269073486,"883":-0.9017549753189087,"884":0.1833723783493042,"885":1.3844294548034668,"886":-0.1113685891032219,"887":0.6966105699539185,"888":0.772504985332489,"889":-1.0340182781219482,"890":-0.18532714247703552,"891":-1.1806707382202148,"892":-0.05748557671904564,"893":0.8739030361175537,"894":-1.2304521799087524,"895":-0.755657970905304,"896":0.6903015375137329,"897":-1.7604622840881348,"898":2.0353176593780518,"899":1.3538562059402466,"900":-0.9025859832763672,"901":-1.1931012868881226,"902":0.4848443269729614,"903":0.9100085496902466,"904":-1.7061920166015625,"905":1.5511353015899658,"906":-0.13464370369911194,"907":0.3823492228984833,"908":0.6471519470214844,"909":-0.5216802358627319,"910":-0.07515551894903183,"911":-0.6965287923812866,"912":0.4664367735385895,"913":1.275992751121521,"914":-0.48978391289711,"915":1.1675612926483154,"916":-1.2766600847244263,"917":1.309248447418213,"918":-0.563968300819397,"919":0.1720474660396576,"920":0.5044679641723633,"921":-1.528536081314087,"922":0.813374936580658,"923":-0.008245060220360756,"924":0.8286638259887695,"925":-0.7237814664840698,"926":0.8249301910400391,"927":0.9310385584831238,"928":-0.787863552570343,"929":0.6333078145980835,"930":-0.4011435806751251,"931":1.2019683122634888,"932":-0.6012023091316223,"933":-1.0993740558624268,"934":0.5397149324417114,"935":1.5569523572921753,"936":0.1495671272277832,"937":0.2884442210197449,"938":-0.6661557555198669,"939":0.4854145050048828,"940":0.567348062992096,"941":-0.35101455450057983,"942":0.6089531183242798,"943":0.10979970544576645,"944":0.7229211330413818,"945":0.5886794328689575,"946":-0.13022953271865845,"947":0.1919335573911667,"948":-0.1831434667110443,"949":0.5727161169052124,"950":0.21259449422359467,"951":0.2725023031234741,"952":-0.08170860260725021,"953":0.2519584894180298,"954":0.6169400811195374,"955":-0.5007837414741516,"956":0.023553505539894104,"957":-0.17903050780296326,"958":1.1963192224502563,"959":2.5333192348480225,"960":0.2848166525363922,"961":-0.31791576743125916,"962":0.4290037453174591,"963":-0.4811868369579315,"964":0.8286603093147278,"965":0.1723777949810028,"966":0.033222492784261703,"967":0.2567700445652008,"968":-0.311217337846756,"969":-0.40334776043891907,"970":0.372205913066864,"971":0.22595623135566711,"972":-0.5320724844932556,"973":1.4168627262115479,"974":-1.2198506593704224,"975":1.3326308727264404,"976":-0.33740586042404175,"977":-0.3097008466720581,"978":0.42982110381126404,"979":-0.5988937020301819,"980":0.4861034154891968,"981":-0.36207714676856995,"982":-0.5819111466407776,"983":-0.6762486100196838,"984":0.5824357867240906,"985":0.07980741560459137,"986":-0.35141995549201965,"987":0.14336594939231873,"988":-0.19540774822235107,"989":-0.3484598696231842,"990":2.1224491596221924,"991":1.3543654680252075,"992":0.5848831534385681,"993":-1.3094630241394043,"994":-0.9942037463188171,"995":-0.18594035506248474,"996":-0.3449317216873169,"997":-1.181098461151123,"998":0.5517261624336243,"999":-0.3976454734802246,"1000":1.1647472381591797,"1001":-1.4803943634033203,"1002":0.03883948549628258,"1003":-1.6052610874176025,"1004":-0.8127028346061707,"1005":-0.3840489685535431,